{"learner":{"attributes":{"scikit_learn":"{\"_estimator_type\": \"classifier\"}"},"feature_names":["Open","High","Low","Close","Shares Traded","Turnover","Weekday"],"feature_types":["float","float","float","float","float","float","int"],"gradient_booster":{"model":{"gbtree_model_param":{"num_parallel_tree":"1","num_trees":"10"},"iteration_indptr":[0,1,2,3,4,5,6,7,8,9,10],"tree_info":[0,0,0,0,0,0,0,0,0,0],"trees":[{"base_weights":[4.56938E-4,-7.837696E-2,1.85797E-1,6.638107E-2,-2.293222E-1,3.87454E-1,9.902369E-3,-4.152542E-1,1.6331747E-1,1.3498324E-1,-4.0040338E-1,1.2725638E-1,7.568937E-1,-1.3862759E-1,5.734356E-1,-1.6661978E-1,-7.694382E-1,7.515065E-1,9.422771E-2,-5.975879E-1,3.8217854E-1,-1.197375E0,-3.5388735E-1,2.492771E-1,-8.0821264E-1,1.2672306E-2,5.989313E-1,-3.4685922E-1,3.5113794E-1,1.2099059E0,-9.4479315E-2,-6.0877705E-1,1.8414573E-1,-1.3890494E-2,-1.4968695E-1,1.16430014E-1,1.07337E-2,-7.7737033E-1,1.4924297E-1,5.7148105E-3,-7.7462155E-1,5.6420946E-1,-5.2352434E-1,-1.6046342E-2,-1.0593897E-3,-3.8519293E-1,5.408482E-1,1.2372156E-2,8.287985E-2,-1.3914033E-2,7.03248E-4,-5.863439E-3,7.7260727E-1,8.011889E-3,-4.195287E-1,5.9416294E-1,-8.956899E-3,1.5537506E-2,-3.2123744E-3,-4.392618E-1,1.0178402E-2,4.3575685E-3,-9.861346E-3,4.235919E-3,-2.5353888E-3,1.0178402E-2,-6.2235207E-3,1.0178402E-2,-3.6108284E-3,-1.0057007E-2,-1.1777087E-3,5.248582E-4,5.164006E-3,-4.7632763E-3,-1.4580035E-2,3.7567152E-3,1.3416367E-2,-9.464441E-3,4.3575685E-3,-3.0247238E-3,-1.0655775E-2,-3.2123744E-3,1.0996466E-2,1.0229657E-2,-4.1163308E-4,1.0284066E-2,5.1013064E-3,-2.6076755E-3,-1.2838062E-2,8.237531E-3,-1.3751794E-3,2.1984463E-3,-1.0682635E-2],"categories":[],"categories_nodes":[],"categories_segments":[],"categories_sizes":[],"default_left":[0,0,0,0,0,0,0,0,0,0,0,0,0,0,0,0,0,0,0,0,0,0,0,0,0,0,0,0,0,0,0,0,0,0,0,0,0,0,0,0,0,0,0,0,0,0,0,0,0,0,0,0,0,0,0,0,0,0,0,0,0,0,0,0,0,0,0,0,0,0,0,0,0,0,0,0,0,0,0,0,0,0,0,0,0,0,0,0,0,0,0,0,0],"id":0,"left_children":[1,3,5,7,9,11,13,15,17,19,21,23,25,27,29,31,33,35,37,39,41,43,45,47,49,-1,51,53,55,57,59,61,63,-1,65,67,-1,69,71,-1,73,75,77,-1,-1,79,81,-1,83,-1,-1,-1,85,-1,87,89,-1,-1,-1,91,-1,-1,-1,-1,-1,-1,-1,-1,-1,-1,-1,-1,-1,-1,-1,-1,-1,-1,-1,-1,-1,-1,-1,-1,-1,-1,-1,-1,-1,-1,-1,-1,-1],"loss_changes":[6.3649116E0,6.693389E0,4.6071773E0,7.38792E0,9.393053E0,5.722912E0,5.977062E0,2.2099538E0,5.262356E0,9.034585E0,3.3654804E0,4.393163E0,1.2414265E0,5.8908224E0,6.4449754E0,2.7295322E0,3.8912187E0,2.665513E0,5.802309E0,3.0627017E0,6.390485E0,2.1490302E0,2.9531984E0,5.363279E0,2.3896E0,0E0,4.744152E0,3.6895118E0,5.796261E0,4.5518684E0,3.5895722E0,3.4639323E0,1.174131E0,0E0,4.197039E0,2.826738E0,0E0,9.661875E-1,3.9653246E0,0E0,1.6332436E0,4.078562E0,3.1328743E0,0E0,0E0,5.0394573E0,2.1495132E0,0E0,3.4854052E0,0E0,0E0,0E0,7.250767E-1,0E0,4.9422584E0,2.6565943E0,0E0,0E0,0E0,3.117698E0,0E0,0E0,0E0,0E0,0E0,0E0,0E0,0E0,0E0,0E0,0E0,0E0,0E0,0E0,0E0,0E0,0E0,0E0,0E0,0E0,0E0,0E0,0E0,0E0,0E0,0E0,0E0,0E0,0E0,0E0,0E0,0E0,0E0],"parents":[2147483647,0,0,1,1,2,2,3,3,4,4,5,5,6,6,7,7,8,8,9,9,10,10,11,11,12,12,13,13,14,14,15,15,16,16,17,17,18,18,19,19,20,20,21,21,22,22,23,23,24,24,26,26,27,27,28,28,29,29,30,30,31,31,32,32,34,34,35,35,37,37,38,38,40,40,41,41,42,42,45,45,46,46,48,48,52,52,54,54,55,55,59,59],"right_children":[2,4,6,8,10,12,14,16,18,20,22,24,26,28,30,32,34,36,38,40,42,44,46,48,50,-1,52,54,56,58,60,62,64,-1,66,68,-1,70,72,-1,74,76,78,-1,-1,80,82,-1,84,-1,-1,-1,86,-1,88,90,-1,-1,-1,92,-1,-1,-1,-1,-1,-1,-1,-1,-1,-1,-1,-1,-1,-1,-1,-1,-1,-1,-1,-1,-1,-1,-1,-1,-1,-1,-1,-1,-1,-1,-1,-1,-1],"split_conditions":[2.403207E4,1.517626E4,1.451725E4,7.34734E3,2.5120453E8,1.166165E4,4E0,1.5434477E8,1.5916285E8,1.734995E4,1.547881E4,1.158175E4,1.19174E4,1.8612E4,2.931602E4,8.04465E3,1.6722936E8,1E0,1.659521E8,1.560634E4,1.941375E4,3E0,1.94954E4,5.5405056E8,1.159255E4,1.2672306E-2,1.202345E4,2.657934E8,2.200965E4,1.968985E4,5.6903066E8,7.7212E3,8.63555E3,-1.3890494E-2,1.706437E8,7.63501E3,1.07337E-2,4E0,2.670414E8,5.7148105E-3,1.85794E4,2.177223E4,1.984465E4,-1.6046342E-2,-1.0593897E-3,1.79437E4,2E0,1.2372156E-2,8.9044E3,-1.3914033E-2,7.03248E-4,-5.863439E-3,2E0,8.011889E-3,1.80841E4,3.442924E4,-8.956899E-3,1.5537506E-2,-3.2123744E-3,3.380214E4,1.0178402E-2,4.3575685E-3,-9.861346E-3,4.235919E-3,-2.5353888E-3,1.0178402E-2,-6.2235207E-3,1.0178402E-2,-3.6108284E-3,-1.0057007E-2,-1.1777087E-3,5.248582E-4,5.164006E-3,-4.7632763E-3,-1.4580035E-2,3.7567152E-3,1.3416367E-2,-9.464441E-3,4.3575685E-3,-3.0247238E-3,-1.0655775E-2,-3.2123744E-3,1.0996466E-2,1.0229657E-2,-4.1163308E-4,1.0284066E-2,5.1013064E-3,-2.6076755E-3,-1.2838062E-2,8.237531E-3,-1.3751794E-3,2.1984463E-3,-1.0682635E-2],"split_indices":[5,5,2,5,4,0,6,4,4,5,5,1,0,0,5,1,4,6,4,5,3,6,2,4,0,0,0,4,0,3,4,2,0,0,4,5,0,6,4,0,0,5,0,0,0,1,6,0,0,0,0,0,6,0,1,5,0,0,0,5,0,0,0,0,0,0,0,0,0,0,0,0,0,0,0,0,0,0,0,0,0,0,0,0,0,0,0,0,0,0,0,0,0],"split_type":[0,0,0,0,0,0,0,0,0,0,0,0,0,0,0,0,0,0,0,0,0,0,0,0,0,0,0,0,0,0,0,0,0,0,0,0,0,0,0,0,0,0,0,0,0,0,0,0,0,0,0,0,0,0,0,0,0,0,0,0,0,0,0,0,0,0,0,0,0,0,0,0,0,0,0,0,0,0,0,0,0,0,0,0,0,0,0,0,0,0,0,0,0],"sum_hessian":[4.336256E2,3.0462943E2,1.2899617E2,1.5578769E2,1.4884174E2,5.9536697E1,6.945948E1,2.5551167E1,1.3023653E2,4.7629356E1,1.0121239E2,3.572202E1,2.3814678E1,5.5567585E1,1.3891896E1,1.5876452E1,9.674713E0,1.2651548E1,1.1758498E2,1.1659269E1,3.597009E1,4.2171826E0,9.69952E1,3.2249043E1,3.472974E0,3.969113E0,1.9845566E1,3.9194992E1,1.6372591E1,6.6978784E0,7.1940174E0,6.6978784E0,9.178574E0,4.2171826E0,5.4575305E0,4.7133217E0,7.938226E0,6.2017393E0,1.1138324E2,1.2403479E0,1.0418921E1,3.0264488E1,5.7056003E0,2.7287652E0,1.4884174E0,9.426643E1,2.7287652E0,3.7210436E0,2.8528E1,1.736487E0,1.736487E0,2.2326262E0,1.761294E1,1.736487E0,3.7458504E1,1.4139965E1,2.2326262E0,5.4575305E0,1.2403479E0,5.9536695E0,1.2403479E0,1.736487E0,4.9613914E0,5.9536695E0,3.2249043E0,1.2403479E0,4.2171826E0,1.2403479E0,3.472974E0,4.2171826E0,1.9845566E0,8.905698E1,2.2326262E1,8.434365E0,1.9845566E0,2.5551167E1,4.7133217E0,3.969113E0,1.736487E0,8.533593E1,8.930505E0,1.2403479E0,1.4884174E0,2.4806957E0,2.6047304E1,7.442087E0,1.0170853E1,3.2745182E1,4.7133217E0,1.0666991E1,3.472974E0,3.2249043E0,2.7287652E0],"tree_param":{"num_deleted":"0","num_feature":"7","num_nodes":"93","size_leaf_vector":"1"}},{"base_weights":[4.749281E-4,-7.7674575E-2,1.8424366E-1,6.570993E-2,-2.2715074E-1,3.8421455E-1,9.869651E-3,-4.1149142E-1,1.617971E-1,1.3362098E-1,-3.9649403E-1,1.2624207E-1,7.5067574E-1,-1.373947E-1,5.689044E-1,-1.6515787E-1,-7.622365E-1,7.456863E-1,9.3247265E-2,-5.924388E-1,3.7880534E-1,-1.187806E0,-3.5030228E-1,2.47494E-1,-8.027339E-1,1.2582729E-2,5.936978E-1,-3.4347764E-1,3.4762377E-1,1.2005739E0,-9.331704E-2,-6.031264E-1,1.8249933E-1,-1.3765092E-2,-1.4754988E-1,1.1641772E-1,1.0647604E-2,-7.707444E-1,1.4782023E-1,5.684785E-3,-7.681686E-1,5.593739E-1,-5.188516E-1,-1.5913146E-2,-1.0529947E-3,-3.8136113E-1,5.376933E-1,1.2285584E-2,8.238766E-2,7.2516775E-4,-1.3844985E-2,-5.820895E-3,7.661855E-1,7.964703E-3,-4.1559803E-1,5.890859E-1,-8.8965595E-3,1.542485E-2,-3.1940916E-3,-4.359706E-1,1.0127234E-2,4.3309876E-3,-9.772385E-3,4.201014E-3,-2.5156096E-3,1.0127234E-2,-6.17052E-3,1.0127234E-2,-3.5819137E-3,-9.968756E-3,-1.1697967E-3,5.196903E-4,5.1168455E-3,-4.718942E-3,-1.4471197E-2,3.708694E-3,1.3374362E-2,-9.382743E-3,4.3309876E-3,-2.9940414E-3,-1.0551282E-2,-3.1940916E-3,1.0937237E-2,1.01634795E-2,-4.076552E-4,1.0201809E-2,5.0569647E-3,-2.581799E-3,-1.2720679E-2,8.1677735E-3,-1.3601182E-3,2.1819922E-3,-1.05973575E-2],"categories":[],"categories_nodes":[],"categories_segments":[],"categories_sizes":[],"default_left":[0,0,0,0,0,0,0,0,0,0,0,0,0,0,0,0,0,0,0,0,0,0,0,0,0,0,0,0,0,0,0,0,0,0,0,0,0,0,0,0,0,0,0,0,0,0,0,0,0,0,0,0,0,0,0,0,0,0,0,0,0,0,0,0,0,0,0,0,0,0,0,0,0,0,0,0,0,0,0,0,0,0,0,0,0,0,0,0,0,0,0,0,0],"id":1,"left_children":[1,3,5,7,9,11,13,15,17,19,21,23,25,27,29,31,33,35,37,39,41,43,45,47,49,-1,51,53,55,57,59,61,63,-1,65,67,-1,69,71,-1,73,75,77,-1,-1,79,81,-1,83,-1,-1,-1,85,-1,87,89,-1,-1,-1,91,-1,-1,-1,-1,-1,-1,-1,-1,-1,-1,-1,-1,-1,-1,-1,-1,-1,-1,-1,-1,-1,-1,-1,-1,-1,-1,-1,-1,-1,-1,-1,-1,-1],"loss_changes":[6.256113E0,6.565704E0,4.5284505E0,7.2552814E0,9.209089E0,5.6264277E0,5.878709E0,2.1688347E0,5.1825433E0,8.880196E0,3.3212013E0,4.334638E0,1.2290459E0,5.7741146E0,6.3385844E0,2.6800292E0,3.8298025E0,2.615488E0,5.704785E0,3.0203557E0,6.2807593E0,2.112969E0,2.9085894E0,5.2835636E0,2.3789763E0,0E0,4.6715436E0,3.6365147E0,5.712529E0,4.4894056E0,3.54723E0,3.4087937E0,1.1552767E0,0E0,4.1432605E0,2.793145E0,0E0,9.4863224E-1,3.8924785E0,0E0,1.6152868E0,4.0873985E0,3.0847225E0,0E0,0E0,4.9463835E0,2.1258414E0,0E0,3.4375925E0,0E0,0E0,0E0,7.1482277E-1,0E0,4.858399E0,2.60947E0,0E0,0E0,0E0,3.0694256E0,0E0,0E0,0E0,0E0,0E0,0E0,0E0,0E0,0E0,0E0,0E0,0E0,0E0,0E0,0E0,0E0,0E0,0E0,0E0,0E0,0E0,0E0,0E0,0E0,0E0,0E0,0E0,0E0,0E0,0E0,0E0,0E0,0E0],"parents":[2147483647,0,0,1,1,2,2,3,3,4,4,5,5,6,6,7,7,8,8,9,9,10,10,11,11,12,12,13,13,14,14,15,15,16,16,17,17,18,18,19,19,20,20,21,21,22,22,23,23,24,24,26,26,27,27,28,28,29,29,30,30,31,31,32,32,34,34,35,35,37,37,38,38,40,40,41,41,42,42,45,45,46,46,48,48,52,52,54,54,55,55,59,59],"right_children":[2,4,6,8,10,12,14,16,18,20,22,24,26,28,30,32,34,36,38,40,42,44,46,48,50,-1,52,54,56,58,60,62,64,-1,66,68,-1,70,72,-1,74,76,78,-1,-1,80,82,-1,84,-1,-1,-1,86,-1,88,90,-1,-1,-1,92,-1,-1,-1,-1,-1,-1,-1,-1,-1,-1,-1,-1,-1,-1,-1,-1,-1,-1,-1,-1,-1,-1,-1,-1,-1,-1,-1,-1,-1,-1,-1,-1,-1],"split_conditions":[2.403207E4,1.517626E4,1.451725E4,7.34734E3,2.5120453E8,1.166165E4,4E0,1.5434477E8,1.5916285E8,1.734995E4,1.547881E4,1.158175E4,1.19174E4,1.8612E4,2.931602E4,8.04465E3,1.6722936E8,1E0,1.659521E8,1.560634E4,1.941375E4,3E0,1.94954E4,5.5405056E8,2E0,1.2582729E-2,1.202345E4,2.657934E8,2.186015E4,1.968985E4,5.6903066E8,7.7212E3,8.63555E3,-1.3765092E-2,1.706437E8,7.63501E3,1.0647604E-2,4E0,2.670414E8,5.684785E-3,1.85794E4,4E0,1.984465E4,-1.5913146E-2,-1.0529947E-3,1.79437E4,2E0,1.2285584E-2,8.9044E3,7.2516775E-4,-1.3844985E-2,-5.820895E-3,2E0,7.964703E-3,1.80841E4,3.442924E4,-8.8965595E-3,1.542485E-2,-3.1940916E-3,3.380214E4,1.0127234E-2,4.3309876E-3,-9.772385E-3,4.201014E-3,-2.5156096E-3,1.0127234E-2,-6.17052E-3,1.0127234E-2,-3.5819137E-3,-9.968756E-3,-1.1697967E-3,5.196903E-4,5.1168455E-3,-4.718942E-3,-1.4471197E-2,3.708694E-3,1.3374362E-2,-9.382743E-3,4.3309876E-3,-2.9940414E-3,-1.0551282E-2,-3.1940916E-3,1.0937237E-2,1.01634795E-2,-4.076552E-4,1.0201809E-2,5.0569647E-3,-2.581799E-3,-1.2720679E-2,8.1677735E-3,-1.3601182E-3,2.1819922E-3,-1.05973575E-2],"split_indices":[5,5,2,5,4,0,6,4,4,5,5,1,0,0,5,1,4,6,4,5,3,6,2,4,6,0,0,4,2,3,4,2,0,0,4,5,0,6,4,0,0,6,0,0,0,1,6,0,0,0,0,0,6,0,1,5,0,0,0,5,0,0,0,0,0,0,0,0,0,0,0,0,0,0,0,0,0,0,0,0,0,0,0,0,0,0,0,0,0,0,0,0,0],"split_type":[0,0,0,0,0,0,0,0,0,0,0,0,0,0,0,0,0,0,0,0,0,0,0,0,0,0,0,0,0,0,0,0,0,0,0,0,0,0,0,0,0,0,0,0,0,0,0,0,0,0,0,0,0,0,0,0,0,0,0,0,0,0,0,0,0,0,0,0,0,0,0,0,0,0,0,0,0,0,0,0,0,0,0,0,0,0,0,0,0,0,0,0,0],"sum_hessian":[4.336224E2,3.0464597E2,1.2897644E2,1.5577742E2,1.4886856E2,5.951811E1,6.945833E1,2.555922E1,1.302182E2,4.76229E1,1.0124567E2,3.5718414E1,2.3799694E1,5.5573143E1,1.3885188E1,1.5878431E1,9.680787E0,1.2643787E1,1.1757441E2,1.1664559E1,3.595834E1,4.2209964E0,9.7024666E1,3.2243507E1,3.4749074E0,3.9645379E0,1.9835155E1,3.9206318E1,1.6366825E1,6.690453E0,7.1947355E0,6.7013865E0,9.177045E0,4.2221313E0,5.458656E0,4.713272E0,7.930516E0,6.2055664E0,1.1136884E2,1.2397151E0,1.0424845E1,3.0250198E1,5.708141E0,2.732441E0,1.4885556E0,9.4297035E1,2.7276301E0,3.716859E0,2.8526648E1,1.7369933E0,1.7379141E0,2.2337575E0,1.7601398E1,1.7352371E0,3.747108E1,1.4132647E1,2.234179E0,5.449758E0,1.2406948E0,5.9555283E0,1.239207E0,1.735814E0,4.965573E0,5.9514275E0,3.2256176E0,1.239207E0,4.219449E0,1.239207E0,3.4740648E0,4.220805E0,1.9847612E0,8.905286E1,2.2315985E1,8.437848E0,1.9869959E0,2.5539331E1,4.710867E0,3.972327E0,1.735814E0,8.535842E1,8.938619E0,1.2406948E0,1.4869353E0,2.4784024E0,2.6048244E1,7.4351697E0,1.0166228E1,3.2752632E1,4.7184486E0,1.0659094E1,3.4735525E0,3.2242775E0,2.7312508E0],"tree_param":{"num_deleted":"0","num_feature":"7","num_nodes":"93","size_leaf_vector":"1"}},{"base_weights":[4.9329025E-4,-7.69789E-2,1.8270844E-1,6.504704E-2,-2.2500305E-1,3.8101068E-1,9.837849E-3,-4.077752E-1,1.6029252E-1,1.3227642E-1,-3.9262912E-1,1.252381E-1,7.4453205E-1,-1.3617495E-1,5.644427E-1,-1.6371135E-1,-7.551408E-1,7.3993933E-1,9.227744E-2,-5.873503E-1,3.754692E-1,-1.1783957E0,-3.4675777E-1,2.4572697E-1,-7.973133E-1,1.2494513E-2,5.8852315E-1,-3.4013385E-1,3.4415135E-1,1.0776969E0,-2.2142638E-1,-5.975488E-1,1.8086843E-1,-1.3641957E-2,-1.4543803E-1,1.1640325E-1,1.0562665E0,-7.6420003E-1,1.4641155E-1,5.6549655E-3,-7.617927E-1,5.545873E-1,-5.142352E-1,-1.5782604E-2,-1.0466386E-3,-3.7757224E-1,5.345714E-1,1.22002885E-2,8.1898764E-2,7.205954E-4,-1.374743E-2,-5.7787346E-3,7.5983477E-1,7.917946E-3,-4.1171062E-1,5.839469E-1,-8.830649E-3,1.3028618E0,7.242241E-4,-6.8387073E-1,1.0076601E-2,4.3045906E-3,-9.684662E-3,4.1664164E-3,-2.4959925E-3,1.0076601E-2,-6.1180834E-3,1.0076601E-2,-3.5532552E-3,5.173913E-3,1.3037542E-2,-3.3171002E-3,-1.1928069E-2,5.145763E-4,5.07016E-3,-4.67508E-3,-1.4364219E-2,3.6742007E-3,1.327791E-2,-9.302118E-3,4.3045906E-3,-2.9636924E-3,-1.0448414E-2,-3.1759231E-3,1.0878708E-2,1.0098076E-2,-4.0371477E-4,1.0120614E-2,5.0130496E-3,-2.5561922E-3,-1.260529E-2,8.098811E-3,-1.3494332E-3,1.5202056E-2,1.1981846E-3,-1.2618077E-3,-1.300255E-2],"categories":[],"categories_nodes":[],"categories_segments":[],"categories_sizes":[],"default_left":[0,0,0,0,0,0,0,0,0,0,0,0,0,0,0,0,0,0,0,0,0,0,0,0,0,0,0,0,0,0,0,0,0,0,0,0,0,0,0,0,0,0,0,0,0,0,0,0,0,0,0,0,0,0,0,0,0,0,0,0,0,0,0,0,0,0,0,0,0,0,0,0,0,0,0,0,0,0,0,0,0,0,0,0,0,0,0,0,0,0,0,0,0,0,0,0,0],"id":2,"left_children":[1,3,5,7,9,11,13,15,17,19,21,23,25,27,29,31,33,35,37,39,41,43,45,47,49,-1,51,53,55,57,59,61,63,-1,65,67,69,71,73,-1,75,77,79,-1,-1,81,83,-1,85,-1,-1,-1,87,-1,89,91,-1,93,-1,95,-1,-1,-1,-1,-1,-1,-1,-1,-1,-1,-1,-1,-1,-1,-1,-1,-1,-1,-1,-1,-1,-1,-1,-1,-1,-1,-1,-1,-1,-1,-1,-1,-1,-1,-1,-1,-1],"loss_changes":[6.1493096E0,6.440572E0,4.4511437E0,7.125163E0,9.028925E0,5.5318136E0,5.7822943E0,2.1286526E0,5.104205E0,8.728649E0,3.2778826E0,4.2769814E0,1.2169514E0,5.659792E0,6.2395463E0,2.6315079E0,3.7698607E0,2.566545E0,5.60904E0,2.9786925E0,6.1729994E0,2.0779119E0,2.86473E0,5.205405E0,2.3463824E0,0E0,4.60014E0,3.5843616E0,5.6245804E0,1.9813595E0,4.5014806E0,3.3547006E0,1.1367296E0,0E0,4.090294E0,2.7600296E0,5.153885E-1,9.4068193E-1,3.821011E0,0E0,1.5977774E0,4.0325117E0,3.0374365E0,0E0,0E0,4.8555346E0,2.102507E0,0E0,3.390565E0,0E0,0E0,0E0,7.048321E-1,0E0,4.77653E0,2.5658984E0,0E0,1.7291546E0,0E0,1.716038E0,0E0,0E0,0E0,0E0,0E0,0E0,0E0,0E0,0E0,0E0,0E0,0E0,0E0,0E0,0E0,0E0,0E0,0E0,0E0,0E0,0E0,0E0,0E0,0E0,0E0,0E0,0E0,0E0,0E0,0E0,0E0,0E0,0E0,0E0,0E0,0E0,0E0],"parents":[2147483647,0,0,1,1,2,2,3,3,4,4,5,5,6,6,7,7,8,8,9,9,10,10,11,11,12,12,13,13,14,14,15,15,16,16,17,17,18,18,19,19,20,20,21,21,22,22,23,23,24,24,26,26,27,27,28,28,29,29,30,30,31,31,32,32,34,34,35,35,36,36,37,37,38,38,40,40,41,41,42,42,45,45,46,46,48,48,52,52,54,54,55,55,57,57,59,59],"right_children":[2,4,6,8,10,12,14,16,18,20,22,24,26,28,30,32,34,36,38,40,42,44,46,48,50,-1,52,54,56,58,60,62,64,-1,66,68,70,72,74,-1,76,78,80,-1,-1,82,84,-1,86,-1,-1,-1,88,-1,90,92,-1,94,-1,96,-1,-1,-1,-1,-1,-1,-1,-1,-1,-1,-1,-1,-1,-1,-1,-1,-1,-1,-1,-1,-1,-1,-1,-1,-1,-1,-1,-1,-1,-1,-1,-1,-1,-1,-1,-1,-1],"split_conditions":[2.403207E4,1.517626E4,1.451725E4,7.34734E3,2.5120453E8,1.166165E4,4E0,1.5434477E8,1.5916285E8,1.734995E4,1.547881E4,1.158175E4,1.19174E4,1.8612E4,3.070069E4,8.04465E3,1.6722936E8,1E0,1.659521E8,1.560634E4,1.941375E4,3E0,1.94954E4,5.5405056E8,2E0,1.2494513E-2,1.202345E4,2.657934E8,2.186015E4,1.968985E4,5.6903066E8,7.7212E3,8.63555E3,-1.3641957E-2,1.706437E8,7.63501E3,8.10666E3,9.92575E3,2.670414E8,5.6549655E-3,1.85794E4,2.177223E4,1.984465E4,-1.5782604E-2,-1.0466386E-3,1.79437E4,2E0,1.22002885E-2,8.9044E3,7.205954E-4,-1.374743E-2,-5.7787346E-3,2E0,7.917946E-3,1.80841E4,3.442924E4,-8.830649E-3,2.864815E4,7.242241E-4,1.785405E4,1.0076601E-2,4.3045906E-3,-9.684662E-3,4.1664164E-3,-2.4959925E-3,1.0076601E-2,-6.1180834E-3,1.0076601E-2,-3.5532552E-3,5.173913E-3,1.3037542E-2,-3.3171002E-3,-1.1928069E-2,5.145763E-4,5.07016E-3,-4.67508E-3,-1.4364219E-2,3.6742007E-3,1.327791E-2,-9.302118E-3,4.3045906E-3,-2.9636924E-3,-1.0448414E-2,-3.1759231E-3,1.0878708E-2,1.0098076E-2,-4.0371477E-4,1.0120614E-2,5.0130496E-3,-2.5561922E-3,-1.260529E-2,8.098811E-3,-1.3494332E-3,1.5202056E-2,1.1981846E-3,-1.2618077E-3,-1.300255E-2],"split_indices":[5,5,2,5,4,0,6,4,4,5,5,1,0,0,5,1,4,6,4,5,3,6,2,4,6,0,0,4,2,3,4,2,0,0,4,5,5,1,4,0,0,5,0,0,0,1,6,0,0,0,0,0,6,0,1,5,0,5,0,3,0,0,0,0,0,0,0,0,0,0,0,0,0,0,0,0,0,0,0,0,0,0,0,0,0,0,0,0,0,0,0,0,0,0,0,0,0],"split_type":[0,0,0,0,0,0,0,0,0,0,0,0,0,0,0,0,0,0,0,0,0,0,0,0,0,0,0,0,0,0,0,0,0,0,0,0,0,0,0,0,0,0,0,0,0,0,0,0,0,0,0,0,0,0,0,0,0,0,0,0,0,0,0,0,0,0,0,0,0,0,0,0,0,0,0,0,0,0,0,0,0,0,0,0,0,0,0,0,0,0,0,0,0,0,0,0,0],"sum_hessian":[4.3361188E2,3.0465826E2,1.2895363E2,1.5576535E2,1.488929E2,5.9498295E1,6.945534E1,2.5566347E1,1.30199E2,4.761558E1,1.0127731E2,3.5714317E1,2.3783978E1,5.557767E1,1.38776655E1,1.588008E1,9.686268E0,1.2635563E1,1.17563446E2,1.1669486E1,3.59461E1,4.2244377E0,9.705288E1,3.2237602E1,3.4767148E0,3.9596882E0,1.982429E1,3.9216995E1,1.6360678E1,8.1702795E0,5.707386E0,6.7046123E0,9.1754675E0,4.2266407E0,5.459627E0,4.7131352E0,7.9224277E0,6.209153E0,1.11354294E2,1.239066E0,1.043042E1,3.0235626E1,5.7104707E0,2.7357454E0,1.488692E0,9.432647E1,2.726408E0,3.71243E0,2.8525173E1,1.7368846E0,1.7398303E0,2.234844E0,1.7589447E1,1.7339411E0,3.7483055E1,1.4124875E1,2.2358022E0,6.4333005E0,1.7369795E0,4.4693756E0,1.23801E0,1.7351292E0,4.969483E0,5.949152E0,3.2263155E0,1.23801E0,4.221617E0,1.23801E0,3.475125E0,3.466062E0,4.4563656E0,3.97354E0,2.235613E0,8.9048775E1,2.2305515E1,8.441208E0,1.9892124E0,2.553068E1,4.704947E0,3.9753416E0,1.7351292E0,8.538031E1,8.946163E0,1.2410337E0,1.4853742E0,2.4759989E0,2.6049175E1,7.427929E0,1.0161517E1,3.27599E1,4.7231536E0,1.0650914E1,3.4739616E0,5.194072E0,1.2392285E0,2.9788733E0,1.4905026E0],"tree_param":{"num_deleted":"0","num_feature":"7","num_nodes":"97","size_leaf_vector":"1"}},{"base_weights":[5.1759277E-4,-7.627877E-2,1.8118365E-1,6.4413816E-2,-2.2287937E-1,3.77842E-1,9.7937565E-3,-4.0410438E-1,1.5882888E-1,1.309487E-1,-3.8880807E-1,1.24244295E-1,7.38461E-1,-1.3496809E-1,5.599799E-1,-1.6227984E-1,-7.4814844E-1,7.347842E-1,9.128253E-2,-5.8232117E-1,3.7216997E-1,-1.1691403E0,-3.432533E-1,2.4397554E-1,-7.919586E-1,1.2407623E-2,5.834064E-1,-3.3682746E-1,3.4072042E-1,1.0698076E0,-2.1981642E-1,-5.9204257E-1,1.7925307E-1,-1.3521026E-2,-1.4335054E-1,1.1638701E-1,1.0486538E0,-7.5834346E-1,1.4501645E-1,5.6253504E-3,-7.554924E-1,5.498504E-1,-5.0967425E-1,-1.5654638E-2,-1.0403211E-3,-3.738257E-1,5.314817E-1,1.2116234E-2,8.1412874E-2,-1.3680348E-2,7.4208435E-4,-5.7369545E-3,7.535537E-1,7.87161E-3,-4.0786585E-1,5.789805E-1,-8.771585E-3,1.293541E0,7.1965624E-4,-6.7941576E-1,1.0026499E-2,4.278377E-3,-9.598149E-3,4.132126E-3,-2.4765362E-3,1.0026499E-2,-6.066198E-3,1.0026499E-2,-3.5248464E-3,5.1358263E-3,1.2945139E-2,-9.822093E-3,-1.1252055E-3,5.095117E-4,5.023942E-3,-4.6316823E-3,-1.4259054E-2,3.6271054E-3,1.3237196E-2,-9.222542E-3,4.278377E-3,-2.9336729E-3,-1.0347125E-2,-3.1578671E-3,1.0820858E-2,1.0033432E-2,-3.998141E-4,1.0040463E-2,4.969554E-3,-2.5308526E-3,-1.2491849E-2,8.030629E-3,-1.3346614E-3,1.5095249E-2,1.191627E-3,-1.2522626E-3,-1.2917031E-2],"categories":[],"categories_nodes":[],"categories_segments":[],"categories_sizes":[],"default_left":[0,0,0,0,0,0,0,0,0,0,0,0,0,0,0,0,0,0,0,0,0,0,0,0,0,0,0,0,0,0,0,0,0,0,0,0,0,0,0,0,0,0,0,0,0,0,0,0,0,0,0,0,0,0,0,0,0,0,0,0,0,0,0,0,0,0,0,0,0,0,0,0,0,0,0,0,0,0,0,0,0,0,0,0,0,0,0,0,0,0,0,0,0,0,0,0,0],"id":3,"left_children":[1,3,5,7,9,11,13,15,17,19,21,23,25,27,29,31,33,35,37,39,41,43,45,47,49,-1,51,53,55,57,59,61,63,-1,65,67,69,71,73,-1,75,77,79,-1,-1,81,83,-1,85,-1,-1,-1,87,-1,89,91,-1,93,-1,95,-1,-1,-1,-1,-1,-1,-1,-1,-1,-1,-1,-1,-1,-1,-1,-1,-1,-1,-1,-1,-1,-1,-1,-1,-1,-1,-1,-1,-1,-1,-1,-1,-1,-1,-1,-1,-1],"loss_changes":[6.043602E0,6.31892E0,4.375554E0,6.998139E0,8.852436E0,5.439024E0,5.6866937E0,2.089384E0,5.036291E0,8.579884E0,3.2354956E0,4.2202024E0,1.2051325E0,5.5478134E0,6.146715E0,2.5839458E0,3.711341E0,2.5230246E0,5.522306E0,2.9377003E0,6.0671773E0,2.043818E0,2.8216057E0,5.1287627E0,2.336117E0,0E0,4.529924E0,3.5330377E0,5.5435476E0,1.952239E0,4.450028E0,3.301627E0,1.1184857E0,0E0,4.0381227E0,2.727383E0,5.0791645E-1,9.322138E-1,3.7509036E0,0E0,1.5807023E0,4.041297E0,2.9909968E0,0E0,0E0,4.7668343E0,2.079503E0,0E0,3.344308E0,0E0,0E0,0E0,6.9509315E-1,0E0,4.6965904E0,2.5205579E0,0E0,1.7033796E0,0E0,1.6947384E0,0E0,0E0,0E0,0E0,0E0,0E0,0E0,0E0,0E0,0E0,0E0,0E0,0E0,0E0,0E0,0E0,0E0,0E0,0E0,0E0,0E0,0E0,0E0,0E0,0E0,0E0,0E0,0E0,0E0,0E0,0E0,0E0,0E0,0E0,0E0,0E0,0E0],"parents":[2147483647,0,0,1,1,2,2,3,3,4,4,5,5,6,6,7,7,8,8,9,9,10,10,11,11,12,12,13,13,14,14,15,15,16,16,17,17,18,18,19,19,20,20,21,21,22,22,23,23,24,24,26,26,27,27,28,28,29,29,30,30,31,31,32,32,34,34,35,35,36,36,37,37,38,38,40,40,41,41,42,42,45,45,46,46,48,48,52,52,54,54,55,55,57,57,59,59],"right_children":[2,4,6,8,10,12,14,16,18,20,22,24,26,28,30,32,34,36,38,40,42,44,46,48,50,-1,52,54,56,58,60,62,64,-1,66,68,70,72,74,-1,76,78,80,-1,-1,82,84,-1,86,-1,-1,-1,88,-1,90,92,-1,94,-1,96,-1,-1,-1,-1,-1,-1,-1,-1,-1,-1,-1,-1,-1,-1,-1,-1,-1,-1,-1,-1,-1,-1,-1,-1,-1,-1,-1,-1,-1,-1,-1,-1,-1,-1,-1,-1,-1],"split_conditions":[2.403207E4,1.517626E4,1.451725E4,7.34734E3,2.5120453E8,1.166165E4,4E0,1.5434477E8,1.5916285E8,1.734995E4,1.547881E4,1.158175E4,1.19174E4,1.8612E4,3.070069E4,8.04465E3,1.6722936E8,1E0,1.659521E8,1.560634E4,1.941375E4,3E0,1.94954E4,5.5405056E8,1.159255E4,1.2407623E-2,1.202345E4,2.657934E8,2.200965E4,1.968985E4,5.6903066E8,7.7212E3,8.63555E3,-1.3521026E-2,1.706437E8,7.63501E3,8.10666E3,4E0,2.670414E8,5.6253504E-3,1.85794E4,4E0,1.984465E4,-1.5654638E-2,-1.0403211E-3,1.79437E4,2E0,1.2116234E-2,8.9044E3,-1.3680348E-2,7.4208435E-4,-5.7369545E-3,2E0,7.87161E-3,1.80841E4,3.442924E4,-8.771585E-3,2.864815E4,7.1965624E-4,1.785405E4,1.0026499E-2,4.278377E-3,-9.598149E-3,4.132126E-3,-2.4765362E-3,1.0026499E-2,-6.066198E-3,1.0026499E-2,-3.5248464E-3,5.1358263E-3,1.2945139E-2,-9.822093E-3,-1.1252055E-3,5.095117E-4,5.023942E-3,-4.6316823E-3,-1.4259054E-2,3.6271054E-3,1.3237196E-2,-9.222542E-3,4.278377E-3,-2.9336729E-3,-1.0347125E-2,-3.1578671E-3,1.0820858E-2,1.0033432E-2,-3.998141E-4,1.0040463E-2,4.969554E-3,-2.5308526E-3,-1.2491849E-2,8.030629E-3,-1.3346614E-3,1.5095249E-2,1.191627E-3,-1.2522626E-3,-1.2917031E-2],"split_indices":[5,5,2,5,4,0,6,4,4,5,5,1,0,0,5,1,4,6,4,5,3,6,2,4,0,0,0,4,0,3,4,2,0,0,4,5,5,6,4,0,0,6,0,0,0,1,6,0,0,0,0,0,6,0,1,5,0,5,0,3,0,0,0,0,0,0,0,0,0,0,0,0,0,0,0,0,0,0,0,0,0,0,0,0,0,0,0,0,0,0,0,0,0,0,0,0,0],"split_type":[0,0,0,0,0,0,0,0,0,0,0,0,0,0,0,0,0,0,0,0,0,0,0,0,0,0,0,0,0,0,0,0,0,0,0,0,0,0,0,0,0,0,0,0,0,0,0,0,0,0,0,0,0,0,0,0,0,0,0,0,0,0,0,0,0,0,0,0,0,0,0,0,0,0,0,0,0,0,0,0,0,0,0,0,0,0,0,0,0,0,0,0,0,0,0,0,0],"sum_hessian":[4.3359464E2,3.046667E2,1.2892795E2,1.5575206E2,1.4891463E2,5.9477245E1,6.945071E1,2.5572573E1,1.3017949E2,4.760725E1,1.0130737E2,3.5709694E1,2.3767555E1,5.558119E1,1.3869518E1,1.5881405E1,9.691169E0,1.2627647E1,1.1755185E2,1.1674055E1,3.5933197E1,4.227513E0,9.707986E1,3.2231346E1,3.478347E0,3.954572E0,1.9812983E1,3.9227036E1,1.6354155E1,8.161593E0,5.7079244E0,6.7075615E0,9.173843E0,4.230722E0,5.460447E0,4.712913E0,7.9147344E0,6.2122645E0,1.11339584E2,1.238401E0,1.0435655E1,3.0220604E1,5.712593E0,2.738686E0,1.4888269E0,9.435476E1,2.7251003E0,3.7077627E0,2.8523582E1,1.7410113E0,1.7373357E0,2.2358856E0,1.7577097E1,1.7325994E0,3.7494434E1,1.4116976E1,2.2371795E0,6.424723E0,1.7368708E0,4.4711666E0,1.2367578E0,1.7344328E0,4.9731283E0,5.946845E0,3.226998E0,1.2367578E0,4.223689E0,1.2367578E0,3.4761553E0,3.4642737E0,4.4504604E0,4.2263813E0,1.9858834E0,8.904472E1,2.2294863E1,8.444445E0,1.9912097E0,2.5518358E1,4.702245E0,3.9781604E0,1.7344328E0,8.54016E1,8.953153E0,1.2413644E0,1.483736E0,2.4734879E0,2.6050095E1,7.4203753E0,1.0156722E1,3.276699E1,4.7274446E0,1.0642463E1,3.4745126E0,5.1856327E0,1.2390903E0,2.9791865E0,1.4919801E0],"tree_param":{"num_deleted":"0","num_feature":"7","num_nodes":"97","size_leaf_vector":"1"}},{"base_weights":[5.516745E-4,-7.557167E-2,1.796762E-1,6.3814476E-2,-2.2077858E-1,3.7470764E-1,9.750564E-3,-4.0047812E-1,1.5741135E-1,1.2963784E-1,-3.8502982E-1,1.23260416E-1,7.324612E-1,-1.3377413E-1,5.5558145E-1,-1.6086291E-1,-7.4125737E-1,7.2969115E-1,9.033315E-2,-5.7735085E-1,3.6890653E-1,-1.1600355E0,-3.397879E-1,2.4223967E-1,-7.866604E-1,1.2322025E-2,5.783465E-1,-3.3355793E-1,3.373297E-1,1.0620394E0,-2.1822228E-1,-5.866059E-1,1.7765313E-1,-1.3402235E-2,-1.4128755E-1,1.1636892E-1,1.04114E0,-7.5194424E-1,1.4363462E-1,5.595938E-3,-7.492668E-1,5.4516095E-1,-5.051674E-1,-1.5529175E-2,-1.0340409E-3,-3.701205E-1,5.284239E-1,1.2033393E-2,8.0930114E-2,7.374066E-4,-1.358539E-2,-5.6955493E-3,7.4734104E-1,7.825689E-3,-4.0406322E-1,5.739518E-1,-8.707078E-3,1.2843804E0,7.1511813E-4,-6.750058E-1,9.976915E-3,4.2523467E-3,-9.512814E-3,4.0981397E-3,-2.4572376E-3,9.976915E-3,-6.014862E-3,9.976915E-3,-3.4966865E-3,5.0980602E-3,1.2854191E-2,-3.236168E-3,-1.1779057E-2,5.0449395E-4,4.978185E-3,-4.5887507E-3,-1.4155657E-2,3.5933915E-3,1.3143014E-2,-9.14399E-3,4.2523467E-3,-2.9039748E-3,-1.0247378E-2,-3.1399233E-3,1.0763681E-2,9.969528E-3,-3.9595086E-4,9.961321E-3,4.926477E-3,-2.5057783E-3,-1.2380295E-2,7.963209E-3,-1.3241799E-3,1.4990501E-2,1.1851059E-3,-1.2427896E-3,-1.2832736E-2],"categories":[],"categories_nodes":[],"categories_segments":[],"categories_sizes":[],"default_left":[0,0,0,0,0,0,0,0,0,0,0,0,0,0,0,0,0,0,0,0,0,0,0,0,0,0,0,0,0,0,0,0,0,0,0,0,0,0,0,0,0,0,0,0,0,0,0,0,0,0,0,0,0,0,0,0,0,0,0,0,0,0,0,0,0,0,0,0,0,0,0,0,0,0,0,0,0,0,0,0,0,0,0,0,0,0,0,0,0,0,0,0,0,0,0,0,0],"id":4,"left_children":[1,3,5,7,9,11,13,15,17,19,21,23,25,27,29,31,33,35,37,39,41,43,45,47,49,-1,51,53,55,57,59,61,63,-1,65,67,69,71,73,-1,75,77,79,-1,-1,81,83,-1,85,-1,-1,-1,87,-1,89,91,-1,93,-1,95,-1,-1,-1,-1,-1,-1,-1,-1,-1,-1,-1,-1,-1,-1,-1,-1,-1,-1,-1,-1,-1,-1,-1,-1,-1,-1,-1,-1,-1,-1,-1,-1,-1,-1,-1,-1,-1],"loss_changes":[5.939194E0,6.200826E0,4.3013225E0,6.8742714E0,8.6795635E0,5.3480196E0,5.5929513E0,2.051002E0,4.9689693E0,8.433857E0,3.1940126E0,4.164262E0,1.1935778E0,5.438118E0,6.055642E0,2.5373201E0,3.6541953E0,2.4803815E0,5.429821E0,2.897367E0,5.9632435E0,2.0106564E0,2.7792025E0,5.0535965E0,2.3044708E0,0E0,4.460868E0,3.4825287E0,5.4584346E0,1.9238281E0,4.3992853E0,3.2495453E0,1.1005396E0,0E0,3.986736E0,2.6951978E0,5.0071716E-1,9.3527555E-1,3.6821299E0,0E0,1.5640383E0,3.9876804E0,2.945385E0,0E0,0E0,4.680216E0,2.0568247E0,0E0,3.298802E0,0E0,0E0,0E0,6.8559647E-1,0E0,4.6185107E0,2.4786372E0,0E0,1.6783094E0,0E0,1.6738529E0,0E0,0E0,0E0,0E0,0E0,0E0,0E0,0E0,0E0,0E0,0E0,0E0,0E0,0E0,0E0,0E0,0E0,0E0,0E0,0E0,0E0,0E0,0E0,0E0,0E0,0E0,0E0,0E0,0E0,0E0,0E0,0E0,0E0,0E0,0E0,0E0,0E0],"parents":[2147483647,0,0,1,1,2,2,3,3,4,4,5,5,6,6,7,7,8,8,9,9,10,10,11,11,12,12,13,13,14,14,15,15,16,16,17,17,18,18,19,19,20,20,21,21,22,22,23,23,24,24,26,26,27,27,28,28,29,29,30,30,31,31,32,32,34,34,35,35,36,36,37,37,38,38,40,40,41,41,42,42,45,45,46,46,48,48,52,52,54,54,55,55,57,57,59,59],"right_children":[2,4,6,8,10,12,14,16,18,20,22,24,26,28,30,32,34,36,38,40,42,44,46,48,50,-1,52,54,56,58,60,62,64,-1,66,68,70,72,74,-1,76,78,80,-1,-1,82,84,-1,86,-1,-1,-1,88,-1,90,92,-1,94,-1,96,-1,-1,-1,-1,-1,-1,-1,-1,-1,-1,-1,-1,-1,-1,-1,-1,-1,-1,-1,-1,-1,-1,-1,-1,-1,-1,-1,-1,-1,-1,-1,-1,-1,-1,-1,-1,-1],"split_conditions":[2.403207E4,1.517626E4,1.451725E4,7.34734E3,2.5120453E8,1.166165E4,4E0,1.5434477E8,1.5916285E8,1.734995E4,1.547881E4,1.158175E4,1.19174E4,1.8612E4,3.070069E4,8.04465E3,1.6722936E8,1E0,1.659521E8,1.560634E4,1.941375E4,3E0,1.94954E4,5.5405056E8,2E0,1.2322025E-2,1.202345E4,2.657934E8,2.186015E4,1.968985E4,5.6903066E8,7.7212E3,8.63555E3,-1.3402235E-2,1.706437E8,7.63501E3,8.10666E3,9.92575E3,2.670414E8,5.595938E-3,1.85794E4,2.177223E4,1.984465E4,-1.5529175E-2,-1.0340409E-3,1.79437E4,2E0,1.2033393E-2,8.9044E3,7.374066E-4,-1.358539E-2,-5.6955493E-3,2E0,7.825689E-3,1.80841E4,3.442924E4,-8.707078E-3,2.864815E4,7.1511813E-4,1.785405E4,9.976915E-3,4.2523467E-3,-9.512814E-3,4.0981397E-3,-2.4572376E-3,9.976915E-3,-6.014862E-3,9.976915E-3,-3.4966865E-3,5.0980602E-3,1.2854191E-2,-3.236168E-3,-1.1779057E-2,5.0449395E-4,4.978185E-3,-4.5887507E-3,-1.4155657E-2,3.5933915E-3,1.3143014E-2,-9.14399E-3,4.2523467E-3,-2.9039748E-3,-1.0247378E-2,-3.1399233E-3,1.0763681E-2,9.969528E-3,-3.9595086E-4,9.961321E-3,4.926477E-3,-2.5057783E-3,-1.2380295E-2,7.963209E-3,-1.3241799E-3,1.4990501E-2,1.1851059E-3,-1.2427896E-3,-1.2832736E-2],"split_indices":[5,5,2,5,4,0,6,4,4,5,5,1,0,0,5,1,4,6,4,5,3,6,2,4,6,0,0,4,2,3,4,2,0,0,4,5,5,1,4,0,0,5,0,0,0,1,6,0,0,0,0,0,6,0,1,5,0,5,0,3,0,0,0,0,0,0,0,0,0,0,0,0,0,0,0,0,0,0,0,0,0,0,0,0,0,0,0,0,0,0,0,0,0,0,0,0,0],"split_type":[0,0,0,0,0,0,0,0,0,0,0,0,0,0,0,0,0,0,0,0,0,0,0,0,0,0,0,0,0,0,0,0,0,0,0,0,0,0,0,0,0,0,0,0,0,0,0,0,0,0,0,0,0,0,0,0,0,0,0,0,0,0,0,0,0,0,0,0,0,0,0,0,0,0,0,0,0,0,0,0,0,0,0,0,0,0,0,0,0,0,0,0,0,0,0,0,0],"sum_hessian":[4.3357077E2,3.0467136E2,1.2889943E2,1.5573738E2,1.4893396E2,5.945504E1,6.944439E1,2.5577915E1,1.3015947E2,4.7598103E1,1.0133587E2,3.5704594E1,2.3750444E1,5.5583725E1,1.3860667E1,1.5882413E1,9.695502E0,1.2619297E1,1.1754017E2,1.1678274E1,3.5919827E1,4.2302303E0,9.710564E1,3.222474E1,3.479857E0,3.9491963E0,1.9801249E1,3.9236454E1,1.6347273E1,8.152395E0,5.7082715E0,6.71024E0,9.1721735E0,4.234384E0,5.461118E0,4.7126074E0,7.90669E0,6.215445E0,1.1132472E2,1.2377205E0,1.0440554E1,3.0205313E1,5.7145133E0,2.74127E0,1.4889603E0,9.438193E1,2.7237093E0,3.7028637E0,2.8521873E1,1.7372262E0,1.7426307E0,2.2368834E0,1.7564363E1,1.7312135E0,3.7505238E1,1.4108655E1,2.2386177E0,6.415633E0,1.7367623E0,4.47282E0,1.2354515E0,1.7337252E0,4.976515E0,5.9445076E0,3.2276657E0,1.2354515E0,4.225667E0,1.2354515E0,3.4771562E0,3.4624538E0,4.4442363E0,3.976545E0,2.2388997E0,8.9040695E1,2.2284029E1,8.447562E0,1.992992E0,2.5509499E1,4.6958146E0,3.980788E0,1.7337252E0,8.5422325E1,8.9596E0,1.2416872E0,1.4820223E0,2.470872E0,2.6051003E1,7.412518E0,1.0151846E1,3.2773907E1,4.731332E0,1.0633749E1,3.4749067E0,5.176681E0,1.2389522E0,2.979495E0,1.4933249E0],"tree_param":{"num_deleted":"0","num_feature":"7","num_nodes":"97","size_leaf_vector":"1"}},{"base_weights":[5.762031E-4,-7.488528E-2,1.7818612E-1,6.319573E-2,-2.1870099E-1,3.7160757E-1,9.708467E-3,-3.9689574E-1,1.559766E-1,1.2834334E-1,-3.81294E-1,1.222868E-1,7.265314E-1,-1.3259265E-1,5.5124587E-1,-1.5946081E-1,-7.344647E-1,7.24659E-1,8.935901E-2,-5.724377E-1,3.6567894E-1,-1.1510777E0,-3.3636126E-1,2.405194E-1,-7.8142565E-1,1.2237688E-2,5.733425E-1,-3.3032462E-1,3.339789E-1,1.054389E0,-2.1664366E-1,-5.8123815E-1,1.7606817E-1,-1.3285522E-2,-1.3924806E-1,1.1634893E-1,1.0337226E-2,-7.462206E-1,1.4226636E-1,4.3185977E-3,-7.71045E-1,5.405199E-1,-5.0071406E-1,-1.5406141E-2,-1.0278008E-3,-3.664563E-1,5.253975E-1,1.1951736E-2,8.045071E-2,-1.3520381E-2,7.586415E-4,-5.6545143E-3,7.4119574E-1,7.780178E-3,-4.0030196E-1,5.690935E-1,-8.649319E-3,1.2753761E0,7.106074E-4,-6.706401E-1,9.927845E-3,4.2264936E-3,-9.428635E-3,4.0644533E-3,-2.4381003E-3,9.927845E-3,-5.96406E-3,9.927845E-3,-3.4687736E-3,-3.2096799E-3,-1.1691213E-2,4.9952784E-4,4.9328827E-3,-1.002328E-2,-1.1489632E-3,3.5471986E-3,1.3103536E-2,-8.426879E-3,5.6019784E-3,-2.8745967E-3,-1.0149131E-2,-3.1220915E-3,1.0707161E-2,9.906353E-3,-3.9212275E-4,9.883174E-3,4.883811E-3,-2.4809644E-3,-1.2270576E-2,7.896541E-3,-1.309642E-3,1.4887752E-2,1.1786212E-3,-1.2333904E-3,-1.2749635E-2],"categories":[],"categories_nodes":[],"categories_segments":[],"categories_sizes":[],"default_left":[0,0,0,0,0,0,0,0,0,0,0,0,0,0,0,0,0,0,0,0,0,0,0,0,0,0,0,0,0,0,0,0,0,0,0,0,0,0,0,0,0,0,0,0,0,0,0,0,0,0,0,0,0,0,0,0,0,0,0,0,0,0,0,0,0,0,0,0,0,0,0,0,0,0,0,0,0,0,0,0,0,0,0,0,0,0,0,0,0,0,0,0,0,0,0],"id":5,"left_children":[1,3,5,7,9,11,13,15,17,19,21,23,25,27,29,31,33,35,37,39,41,43,45,47,49,-1,51,53,55,57,59,61,63,-1,65,67,-1,69,71,-1,73,75,77,-1,-1,79,81,-1,83,-1,-1,-1,85,-1,87,89,-1,91,-1,93,-1,-1,-1,-1,-1,-1,-1,-1,-1,-1,-1,-1,-1,-1,-1,-1,-1,-1,-1,-1,-1,-1,-1,-1,-1,-1,-1,-1,-1,-1,-1,-1,-1,-1,-1],"loss_changes":[5.8373513E0,6.0839148E0,4.228428E0,6.7519555E0,8.51021E0,5.2587442E0,5.501019E0,2.0134788E0,4.903327E0,8.290496E0,3.1533985E0,4.109172E0,1.1822796E0,5.3306613E0,5.966286E0,2.4916105E0,3.5983825E0,2.4385953E0,5.3460803E0,2.8625765E0,5.861178E0,1.9783869E0,2.7375107E0,4.9798665E0,2.2946842E0,0E0,4.3929515E0,3.4328184E0,5.3800626E0,1.8961048E0,4.3492403E0,3.198436E0,1.0828874E0,0E0,3.9361176E0,2.6634674E0,0E0,9.228649E-1,3.6146526E0,0E0,1.5461483E0,3.9964008E0,2.9087496E0,0E0,0E0,4.5956116E0,2.0344658E0,0E0,3.2540333E0,0E0,0E0,0E0,6.763325E-1,0E0,4.542236E0,2.4349666E0,0E0,1.6539164E0,0E0,1.6533668E0,0E0,0E0,0E0,0E0,0E0,0E0,0E0,0E0,0E0,0E0,0E0,0E0,0E0,0E0,0E0,0E0,0E0,0E0,0E0,0E0,0E0,0E0,0E0,0E0,0E0,0E0,0E0,0E0,0E0,0E0,0E0,0E0,0E0,0E0,0E0],"parents":[2147483647,0,0,1,1,2,2,3,3,4,4,5,5,6,6,7,7,8,8,9,9,10,10,11,11,12,12,13,13,14,14,15,15,16,16,17,17,18,18,19,19,20,20,21,21,22,22,23,23,24,24,26,26,27,27,28,28,29,29,30,30,31,31,32,32,34,34,35,35,37,37,38,38,40,40,41,41,42,42,45,45,46,46,48,48,52,52,54,54,55,55,57,57,59,59],"right_children":[2,4,6,8,10,12,14,16,18,20,22,24,26,28,30,32,34,36,38,40,42,44,46,48,50,-1,52,54,56,58,60,62,64,-1,66,68,-1,70,72,-1,74,76,78,-1,-1,80,82,-1,84,-1,-1,-1,86,-1,88,90,-1,92,-1,94,-1,-1,-1,-1,-1,-1,-1,-1,-1,-1,-1,-1,-1,-1,-1,-1,-1,-1,-1,-1,-1,-1,-1,-1,-1,-1,-1,-1,-1,-1,-1,-1,-1,-1,-1],"split_conditions":[2.403207E4,1.517626E4,1.451725E4,7.34734E3,2.5120453E8,1.166165E4,4E0,1.5434477E8,1.5916285E8,1.734995E4,1.547881E4,1.158175E4,1.19174E4,1.8612E4,3.070069E4,8.04465E3,1.6722936E8,1E0,1.659521E8,1.5712E4,1.941375E4,3E0,1.94954E4,5.5405056E8,1.159255E4,1.2237688E-2,1.202345E4,2.657934E8,2.200965E4,1.968985E4,5.6903066E8,7.7212E3,8.63555E3,-1.3285522E-2,1.706437E8,7.63501E3,1.0337226E-2,9.92575E3,2.670414E8,4.3185977E-3,2.1014832E8,4E0,2.012795E4,-1.5406141E-2,-1.0278008E-3,1.79437E4,2E0,1.1951736E-2,8.9044E3,-1.3520381E-2,7.586415E-4,-5.6545143E-3,2E0,7.780178E-3,1.80841E4,3.442924E4,-8.649319E-3,2.864815E4,7.106074E-4,1.785405E4,9.927845E-3,4.2264936E-3,-9.428635E-3,4.0644533E-3,-2.4381003E-3,9.927845E-3,-5.96406E-3,9.927845E-3,-3.4687736E-3,-3.2096799E-3,-1.1691213E-2,4.9952784E-4,4.9328827E-3,-1.002328E-2,-1.1489632E-3,3.5471986E-3,1.3103536E-2,-8.426879E-3,5.6019784E-3,-2.8745967E-3,-1.0149131E-2,-3.1220915E-3,1.0707161E-2,9.906353E-3,-3.9212275E-4,9.883174E-3,4.883811E-3,-2.4809644E-3,-1.2270576E-2,7.896541E-3,-1.309642E-3,1.4887752E-2,1.1786212E-3,-1.2333904E-3,-1.2749635E-2],"split_indices":[5,5,2,5,4,0,6,4,4,5,5,1,0,0,5,1,4,6,4,5,3,6,2,4,0,0,0,4,0,3,4,2,0,0,4,5,0,1,4,0,4,6,0,0,0,1,6,0,0,0,0,0,6,0,1,5,0,5,0,3,0,0,0,0,0,0,0,0,0,0,0,0,0,0,0,0,0,0,0,0,0,0,0,0,0,0,0,0,0,0,0,0,0,0,0],"split_type":[0,0,0,0,0,0,0,0,0,0,0,0,0,0,0,0,0,0,0,0,0,0,0,0,0,0,0,0,0,0,0,0,0,0,0,0,0,0,0,0,0,0,0,0,0,0,0,0,0,0,0,0,0,0,0,0,0,0,0,0,0,0,0,0,0,0,0,0,0,0,0,0,0,0,0,0,0,0,0,0,0,0,0,0,0,0,0,0,0,0,0,0,0,0,0],"sum_hessian":[4.3353973E2,3.0467163E2,1.2886809E2,1.5572083E2,1.4895082E2,5.9431652E1,6.943643E1,2.5582394E1,1.3013843E2,4.7587982E1,1.0136283E2,3.569899E1,2.3732664E1,5.55853E1,1.3851131E1,1.5883114E1,9.69928E0,1.2610524E1,1.175279E2,1.1682151E1,3.5905834E1,4.232597E0,9.713023E1,3.2217793E1,3.4811964E0,3.9435682E0,1.9789097E1,3.9245262E1,1.6340036E1,8.1427E0,5.7084303E0,6.712655E0,9.170459E0,4.2376356E0,5.4616446E0,4.71222E0,7.898304E0,6.2181864E0,1.11309715E2,1.7348909E0,9.94726E0,3.0189598E1,5.716235E0,2.7435048E0,1.4890919E0,9.4408E1,2.7222366E0,3.6977394E0,2.8520052E1,1.7435689E0,1.7376276E0,2.2378383E0,1.7551258E1,1.7297841E0,3.751548E1,1.4100213E1,2.2398233E0,6.4060464E0,1.7366542E0,4.4743385E0,1.234092E0,1.7330066E0,4.979648E0,5.9421406E0,3.2283182E0,1.234092E0,4.2275524E0,1.234092E0,3.478128E0,3.9775167E0,2.2406697E0,8.903669E1,2.2273027E1,6.9647083E0,2.9825516E0,2.5496717E1,4.6928797E0,4.4783735E0,1.2378619E0,8.544248E1,8.96552E0,1.2420021E0,1.4802345E0,2.468154E0,2.6051899E1,7.404366E0,1.0146893E1,3.2780655E1,4.734825E0,1.062478E1,3.4754329E0,5.1672325E0,1.238814E0,2.9797993E0,1.4945391E0],"tree_param":{"num_deleted":"0","num_feature":"7","num_nodes":"95","size_leaf_vector":"1"}},{"base_weights":[6.0247234E-4,-7.420314E-2,1.7671278E-1,6.253676E-2,-2.1658975E-1,3.685405E-1,9.667393E-3,-3.933562E-1,1.5449998E-1,1.2723121E-1,-3.7760025E-1,1.21322535E-1,7.2067E-1,-1.3142352E-1,5.469717E-1,-1.5807302E-1,-7.277683E-1,7.191718E-1,8.839535E-2,-5.6705946E-1,3.625377E-1,-1.1422634E0,-3.329731E-1,2.609832E-1,-6.4184785E-1,1.2154579E-2,5.683934E-1,-3.2712695E-1,3.306671E-1,1.0468535E0,-2.1508043E-1,-5.7593703E-1,1.7449799E-1,-1.3170825E-2,-1.3723217E-1,1.1632715E-1,1.0256355E0,-7.405597E-1,1.4091142E-1,5.544212E-3,-7.3658854E-1,5.3592473E-1,-4.9599153E-1,-1.5285468E-2,-1.0215995E-3,-3.6283284E-1,5.2240205E-1,3.8697276E-1,-5.9412915E-1,6.2411684E-3,-1.1904225E-2,-5.613841E-3,7.351163E-1,7.735068E-3,-3.9658144E-1,5.641714E-1,-8.58617E-3,1.2665236E0,7.0612674E-4,-6.66318E-1,9.879275E-3,4.2008203E-3,-9.345582E-3,4.0310607E-3,-2.4191202E-3,9.879275E-3,-5.9137866E-3,9.879275E-3,-3.4411037E-3,4.9847993E-3,1.2693215E-2,-9.621476E-3,-1.0458308E-3,4.946111E-4,4.888031E-3,-4.4864807E-3,-1.3995353E-2,3.5142435E-3,1.3011537E-2,-8.354149E-3,5.572726E-3,-2.8455376E-3,-1.0052346E-2,-3.1043668E-3,1.0651287E-2,5.152141E-3,-6.717023E-3,-1.0249764E-2,5.4909405E-4,-5.062949E-3,5.7274923E-3,9.805996E-3,4.84155E-3,-2.4564078E-3,-1.2162645E-2,7.830607E-3,-1.2993612E-3,1.4786946E-2,1.1721717E-3,-1.2240624E-3,-1.2667704E-2],"categories":[],"categories_nodes":[],"categories_segments":[],"categories_sizes":[],"default_left":[0,0,0,0,0,0,0,0,0,0,0,0,0,0,0,0,0,0,0,0,0,0,0,0,0,0,0,0,0,0,0,0,0,0,0,0,0,0,0,0,0,0,0,0,0,0,0,0,0,0,0,0,0,0,0,0,0,0,0,0,0,0,0,0,0,0,0,0,0,0,0,0,0,0,0,0,0,0,0,0,0,0,0,0,0,0,0,0,0,0,0,0,0,0,0,0,0,0,0,0,0],"id":6,"left_children":[1,3,5,7,9,11,13,15,17,19,21,23,25,27,29,31,33,35,37,39,41,43,45,47,49,-1,51,53,55,57,59,61,63,-1,65,67,69,71,73,-1,75,77,79,-1,-1,81,83,85,87,89,-1,-1,91,-1,93,95,-1,97,-1,99,-1,-1,-1,-1,-1,-1,-1,-1,-1,-1,-1,-1,-1,-1,-1,-1,-1,-1,-1,-1,-1,-1,-1,-1,-1,-1,-1,-1,-1,-1,-1,-1,-1,-1,-1,-1,-1,-1,-1,-1,-1],"loss_changes":[5.737265E0,5.964889E0,4.156831E0,6.6305647E0,8.350001E0,5.171175E0,5.410858E0,1.97679E0,4.83065E0,8.141845E0,3.1136332E0,4.078423E0,1.1712294E0,5.2253904E0,5.878601E0,2.4467924E0,3.54385E0,2.393413E0,5.263735E0,2.820374E0,5.7574296E0,1.9469814E0,2.696518E0,3.6481094E0,2.1281989E0,0E0,4.326148E0,3.383894E0,5.2976823E0,1.8690453E0,4.2998805E0,3.1482718E0,1.0655227E0,0E0,3.8862545E0,2.6321821E0,5.091419E-1,9.1695595E-1,3.548453E0,0E0,1.5577784E0,3.9439936E0,2.8672724E0,0E0,0E0,4.5129595E0,2.0124183E0,4.1826773E0,1.305918E0,1.3728154E0,0E0,0E0,6.6729164E-1,0E0,4.467705E0,2.3946228E0,0E0,1.6301775E0,0E0,1.6332738E0,0E0,0E0,0E0,0E0,0E0,0E0,0E0,0E0,0E0,0E0,0E0,0E0,0E0,0E0,0E0,0E0,0E0,0E0,0E0,0E0,0E0,0E0,0E0,0E0,0E0,0E0,0E0,0E0,0E0,0E0,0E0,0E0,0E0,0E0,0E0,0E0,0E0,0E0,0E0,0E0,0E0],"parents":[2147483647,0,0,1,1,2,2,3,3,4,4,5,5,6,6,7,7,8,8,9,9,10,10,11,11,12,12,13,13,14,14,15,15,16,16,17,17,18,18,19,19,20,20,21,21,22,22,23,23,24,24,26,26,27,27,28,28,29,29,30,30,31,31,32,32,34,34,35,35,36,36,37,37,38,38,40,40,41,41,42,42,45,45,46,46,47,47,48,48,49,49,52,52,54,54,55,55,57,57,59,59],"right_children":[2,4,6,8,10,12,14,16,18,20,22,24,26,28,30,32,34,36,38,40,42,44,46,48,50,-1,52,54,56,58,60,62,64,-1,66,68,70,72,74,-1,76,78,80,-1,-1,82,84,86,88,90,-1,-1,92,-1,94,96,-1,98,-1,100,-1,-1,-1,-1,-1,-1,-1,-1,-1,-1,-1,-1,-1,-1,-1,-1,-1,-1,-1,-1,-1,-1,-1,-1,-1,-1,-1,-1,-1,-1,-1,-1,-1,-1,-1,-1,-1,-1,-1,-1,-1],"split_conditions":[2.403207E4,1.517626E4,1.451725E4,7.34734E3,2.5120453E8,1.166165E4,4E0,1.5434477E8,1.5916285E8,1.734995E4,1.547881E4,3.834361E4,1.19174E4,1.8612E4,3.070069E4,8.04465E3,1.6722936E8,1E0,1.659521E8,1.560634E4,1.941375E4,3E0,1.94954E4,8.739567E8,1.108465E4,1.2154579E-2,1.202345E4,2.657934E8,2.200965E4,1.968985E4,5.6903066E8,7.7212E3,8.63555E3,-1.3170825E-2,1.706437E8,7.63501E3,8.10666E3,4E0,2.670414E8,5.544212E-3,1.85794E4,2.177223E4,2.012795E4,-1.5285468E-2,-1.0215995E-3,1.79437E4,2E0,1.158175E4,3.275721E4,1.0119E4,-1.1904225E-2,-5.613841E-3,2E0,7.735068E-3,1.80841E4,3.442924E4,-8.58617E-3,2.864815E4,7.0612674E-4,1.785405E4,9.879275E-3,4.2008203E-3,-9.345582E-3,4.0310607E-3,-2.4191202E-3,9.879275E-3,-5.9137866E-3,9.879275E-3,-3.4411037E-3,4.9847993E-3,1.2693215E-2,-9.621476E-3,-1.0458308E-3,4.946111E-4,4.888031E-3,-4.4864807E-3,-1.3995353E-2,3.5142435E-3,1.3011537E-2,-8.354149E-3,5.572726E-3,-2.8455376E-3,-1.0052346E-2,-3.1043668E-3,1.0651287E-2,5.152141E-3,-6.717023E-3,-1.0249764E-2,5.4909405E-4,-5.062949E-3,5.7274923E-3,9.805996E-3,4.84155E-3,-2.4564078E-3,-1.2162645E-2,7.830607E-3,-1.2993612E-3,1.4786946E-2,1.1721717E-3,-1.2240624E-3,-1.2667704E-2],"split_indices":[5,5,2,5,4,0,6,4,4,5,5,5,0,0,5,1,4,6,4,5,3,6,2,4,2,0,0,4,0,3,4,2,0,0,4,5,5,6,4,0,0,5,0,0,0,1,6,1,5,0,0,0,6,0,1,5,0,5,0,3,0,0,0,0,0,0,0,0,0,0,0,0,0,0,0,0,0,0,0,0,0,0,0,0,0,0,0,0,0,0,0,0,0,0,0,0,0,0,0,0,0],"split_type":[0,0,0,0,0,0,0,0,0,0,0,0,0,0,0,0,0,0,0,0,0,0,0,0,0,0,0,0,0,0,0,0,0,0,0,0,0,0,0,0,0,0,0,0,0,0,0,0,0,0,0,0,0,0,0,0,0,0,0,0,0,0,0,0,0,0,0,0,0,0,0,0,0,0,0,0,0,0,0,0,0,0,0,0,0,0,0,0,0,0,0,0,0,0,0,0,0,0,0,0,0],"sum_hessian":[4.3350247E2,3.0466846E2,1.2883405E2,1.5570201E2,1.4896643E2,5.9407173E1,6.9426865E1,2.558603E1,1.3011598E2,4.7578133E1,1.01388306E2,3.5692936E1,2.371424E1,5.558594E1,1.3840927E1,1.5883513E1,9.702515E0,1.260066E1,1.1751532E2,1.1686451E1,3.589168E1,4.234619E0,9.715369E1,3.0727762E1,4.9651723E0,3.9376948E0,1.9776543E1,3.925348E1,1.633246E1,8.132524E0,5.7084045E0,6.714812E0,9.168701E0,4.2404866E0,5.4620285E0,4.711752E0,7.8889084E0,6.220735E0,1.1129458E2,1.2364748E0,1.0449976E1,3.0173634E1,5.7180486E0,2.745397E0,1.489222E0,9.4433E1,2.7206838E0,2.7258972E1,3.4687912E0,2.7293394E0,2.235833E0,2.2387512E0,1.7537792E1,1.7283125E0,3.7525166E1,1.4091378E1,2.2410831E0,6.395977E0,1.7365463E0,4.4757237E0,1.2326807E0,1.7322773E0,4.9825344E0,5.939745E0,3.2289565E0,1.2326807E0,4.2293477E0,1.2326807E0,3.4790714E0,3.4567192E0,4.432189E0,4.2330003E0,1.9877347E0,8.903272E1,2.226186E1,8.454601E0,1.9953744E0,2.5487675E1,4.6859603E0,4.48088E0,1.2371691E0,8.5462074E1,8.970923E0,1.2423093E0,1.4783745E0,2.477163E1,2.4873424E0,1.7367034E0,1.7320879E0,1.4887307E0,1.2406088E0,7.395929E0,1.0141864E1,3.2787235E1,4.7379317E0,1.0615565E1,3.4758124E0,5.157301E0,1.2386757E0,2.9800987E0,1.4956251E0],"tree_param":{"num_deleted":"0","num_feature":"7","num_nodes":"101","size_leaf_vector":"1"}},{"base_weights":[5.6953455E-4,-7.350999E-2,1.750176E-1,6.195889E-2,-2.1454383E-1,3.6499727E-1,9.627344E-3,-3.8985875E-1,1.5312529E-1,1.2600715E-1,-3.7394726E-1,1.19522564E-1,7.1487564E-1,-1.3026653E-1,5.427576E-1,-1.5669943E-1,-7.211658E-1,7.1425956E-1,8.747649E-2,-5.6226325E-1,3.594305E-1,-1.1335884E0,-3.2962218E-1,2.5809845E-1,-6.370951E-1,1.2072666E-2,5.634981E-1,-3.2396436E-1,3.2739368E-1,1.0394299E0,-2.1353233E-1,-5.7070196E-1,1.7294267E-1,-1.3058089E-2,-1.352391E-1,1.1630381E-1,1.018406E0,-7.343625E-1,1.3956948E-1,4.2847856E-3,-7.5815386E-1,5.3137654E-1,-4.913254E-1,-1.51670845E-2,-1.0154339E-3,-3.5924885E-1,5.1943696E-1,3.8319936E-1,-5.901704E-1,6.3577304E-3,-1.1814618E-2,-5.5735293E-3,7.291016E-1,7.690355E-3,-3.9290103E-1,5.594161E-1,-8.529603E-3,1.2578188E0,7.0167315E-4,-6.620389E-1,9.831203E-3,5.5579892E-3,-8.714887E-3,3.99796E-3,-2.4002912E-3,9.831203E-3,-5.8640335E-3,9.831203E-3,-3.4136733E-3,4.9482984E-3,1.2606152E-2,-3.1311181E-3,-1.1547911E-2,4.897413E-4,4.8436234E-3,-9.866265E-3,-1.1064011E-3,3.4689282E-3,1.2973242E-2,-8.924984E-3,4.207284E-3,-2.8167868E-3,-9.956985E-3,-3.0867534E-3,1.0596047E-2,5.1050503E-3,-6.6669695E-3,-1.0179087E-2,5.4563244E-4,-5.0538084E-3,5.720095E-3,9.7297635E-3,4.799689E-3,-2.4321051E-3,-1.2056449E-2,7.7653932E-3,-1.2851014E-3,1.4688024E-2,1.1657595E-3,-1.2148073E-3,-1.2586922E-2],"categories":[],"categories_nodes":[],"categories_segments":[],"categories_sizes":[],"default_left":[0,0,0,0,0,0,0,0,0,0,0,0,0,0,0,0,0,0,0,0,0,0,0,0,0,0,0,0,0,0,0,0,0,0,0,0,0,0,0,0,0,0,0,0,0,0,0,0,0,0,0,0,0,0,0,0,0,0,0,0,0,0,0,0,0,0,0,0,0,0,0,0,0,0,0,0,0,0,0,0,0,0,0,0,0,0,0,0,0,0,0,0,0,0,0,0,0,0,0,0,0],"id":7,"left_children":[1,3,5,7,9,11,13,15,17,19,21,23,25,27,29,31,33,35,37,39,41,43,45,47,49,-1,51,53,55,57,59,61,63,-1,65,67,69,71,73,-1,75,77,79,-1,-1,81,83,85,87,89,-1,-1,91,-1,93,95,-1,97,-1,99,-1,-1,-1,-1,-1,-1,-1,-1,-1,-1,-1,-1,-1,-1,-1,-1,-1,-1,-1,-1,-1,-1,-1,-1,-1,-1,-1,-1,-1,-1,-1,-1,-1,-1,-1,-1,-1,-1,-1,-1,-1],"loss_changes":[5.6273766E0,5.8531713E0,4.074785E0,6.5135465E0,8.188726E0,5.1004086E0,5.3224263E0,1.9409099E0,4.7667246E0,8.004732E0,3.0746841E0,4.010847E0,1.1604109E0,5.122258E0,5.792547E0,2.402851E0,3.4905624E0,2.3533173E0,5.175837E0,2.7876315E0,5.6555886E0,1.9164081E0,2.6562061E0,3.5920508E0,2.0976663E0,0E0,4.2604413E0,3.33574E0,5.2218103E0,1.8426266E0,4.251198E0,3.0990782E0,1.0484393E0,0E0,3.8371341E0,2.6013367E0,5.0231266E-1,9.177213E-1,3.483506E0,0E0,1.5116553E0,3.9526424E0,2.8341694E0,0E0,0E0,4.4321976E0,1.990679E0,4.1159E0,1.2883207E0,1.3686043E0,0E0,0E0,6.5846634E-1,0E0,4.3948607E0,2.3525763E0,0E0,1.6070642E0,0E0,1.6135604E0,0E0,0E0,0E0,0E0,0E0,0E0,0E0,0E0,0E0,0E0,0E0,0E0,0E0,0E0,0E0,0E0,0E0,0E0,0E0,0E0,0E0,0E0,0E0,0E0,0E0,0E0,0E0,0E0,0E0,0E0,0E0,0E0,0E0,0E0,0E0,0E0,0E0,0E0,0E0,0E0,0E0],"parents":[2147483647,0,0,1,1,2,2,3,3,4,4,5,5,6,6,7,7,8,8,9,9,10,10,11,11,12,12,13,13,14,14,15,15,16,16,17,17,18,18,19,19,20,20,21,21,22,22,23,23,24,24,26,26,27,27,28,28,29,29,30,30,31,31,32,32,34,34,35,35,36,36,37,37,38,38,40,40,41,41,42,42,45,45,46,46,47,47,48,48,49,49,52,52,54,54,55,55,57,57,59,59],"right_children":[2,4,6,8,10,12,14,16,18,20,22,24,26,28,30,32,34,36,38,40,42,44,46,48,50,-1,52,54,56,58,60,62,64,-1,66,68,70,72,74,-1,76,78,80,-1,-1,82,84,86,88,90,-1,-1,92,-1,94,96,-1,98,-1,100,-1,-1,-1,-1,-1,-1,-1,-1,-1,-1,-1,-1,-1,-1,-1,-1,-1,-1,-1,-1,-1,-1,-1,-1,-1,-1,-1,-1,-1,-1,-1,-1,-1,-1,-1,-1,-1,-1,-1,-1,-1],"split_conditions":[2.403207E4,1.517626E4,1.451725E4,7.34734E3,2.5120453E8,1.166165E4,4E0,1.5434477E8,1.5916285E8,1.734995E4,1.547881E4,3.834361E4,1.19174E4,1.8612E4,3.070069E4,8.04465E3,1.6722936E8,1E0,1.659521E8,1.5712E4,1.941375E4,3E0,1.94954E4,8.739567E8,1.108465E4,1.2072666E-2,1.202345E4,2.657934E8,2.186015E4,1.968985E4,5.6903066E8,7.73315E3,8.63555E3,-1.3058089E-2,1.706437E8,7.63501E3,8.10666E3,9.92575E3,2.670414E8,4.2847856E-3,2.1014832E8,4E0,1.984465E4,-1.51670845E-2,-1.0154339E-3,1.79437E4,2E0,1.158175E4,3.275721E4,4.158785E4,-1.1814618E-2,-5.5735293E-3,2E0,7.690355E-3,1.80841E4,3.442924E4,-8.529603E-3,2.864815E4,7.0167315E-4,1.785405E4,9.831203E-3,5.5579892E-3,-8.714887E-3,3.99796E-3,-2.4002912E-3,9.831203E-3,-5.8640335E-3,9.831203E-3,-3.4136733E-3,4.9482984E-3,1.2606152E-2,-3.1311181E-3,-1.1547911E-2,4.897413E-4,4.8436234E-3,-9.866265E-3,-1.1064011E-3,3.4689282E-3,1.2973242E-2,-8.924984E-3,4.207284E-3,-2.8167868E-3,-9.956985E-3,-3.0867534E-3,1.0596047E-2,5.1050503E-3,-6.6669695E-3,-1.0179087E-2,5.4563244E-4,-5.0538084E-3,5.720095E-3,9.7297635E-3,4.799689E-3,-2.4321051E-3,-1.2056449E-2,7.7653932E-3,-1.2851014E-3,1.4688024E-2,1.1657595E-3,-1.2148073E-3,-1.2586922E-2],"split_indices":[5,5,2,5,4,0,6,4,4,5,5,5,0,0,5,1,4,6,4,5,3,6,2,4,2,0,0,4,2,3,4,0,0,0,4,5,5,1,4,0,4,6,0,0,0,1,6,1,5,5,0,0,6,0,1,5,0,5,0,3,0,0,0,0,0,0,0,0,0,0,0,0,0,0,0,0,0,0,0,0,0,0,0,0,0,0,0,0,0,0,0,0,0,0,0,0,0,0,0,0,0],"split_type":[0,0,0,0,0,0,0,0,0,0,0,0,0,0,0,0,0,0,0,0,0,0,0,0,0,0,0,0,0,0,0,0,0,0,0,0,0,0,0,0,0,0,0,0,0,0,0,0,0,0,0,0,0,0,0,0,0,0,0,0,0,0,0,0,0,0,0,0,0,0,0,0,0,0,0,0,0,0,0,0,0,0,0,0,0,0,0,0,0,0,0,0,0,0,0,0,0,0,0,0,0],"sum_hessian":[4.334578E2,3.046616E2,1.287962E2,1.5568262E2,1.4897896E2,5.938046E1,6.941574E1,2.5588839E1,1.3009378E2,4.756664E1,1.0141232E2,3.5685276E1,2.3695185E1,5.5585667E1,1.3830074E1,1.5883619E1,9.705219E0,1.2591101E1,1.17502686E2,1.1689701E1,3.5876938E1,4.2363048E0,9.717602E1,3.0718082E1,4.967194E0,3.9315832E0,1.9763601E1,3.9261116E1,1.632455E1,8.121878E0,5.708197E0,6.7167163E0,9.166903E0,4.242946E0,5.4622736E0,4.7112055E0,7.8798957E0,6.223363E0,1.1127932E2,1.733742E0,9.955959E0,3.0157269E1,5.719671E0,2.7469544E0,1.4893507E0,9.445696E1,2.7190526E0,2.7247879E1,3.470203E0,2.7293577E0,2.2378366E0,2.2396224E0,1.752398E1,1.7267994E0,3.7534317E1,1.4082426E1,2.242125E0,6.385439E0,1.7364385E0,4.476979E0,1.2312185E0,1.2368126E0,5.4799037E0,5.937322E0,3.2295804E0,1.2312185E0,4.231055E0,1.2312185E0,3.4799871E0,3.4547827E0,4.425113E0,3.9801621E0,2.2432008E0,8.9028786E1,2.2250538E1,6.972149E0,2.9838102E0,2.5474464E1,4.682804E0,3.9872797E0,1.732391E0,8.548114E1,8.975824E0,1.2426089E0,1.4764438E0,2.4759422E1,2.4884582E0,1.7382102E0,1.7319927E0,1.4889096E0,1.240448E0,7.3872156E0,1.0136763E1,3.2793655E1,4.7406626E0,1.0606113E1,3.4763129E0,5.1469016E0,1.2385373E0,2.980394E0,1.4965848E0],"tree_param":{"num_deleted":"0","num_feature":"7","num_nodes":"101","size_leaf_vector":"1"}},{"base_weights":[5.4223044E-4,-7.281702E-2,1.7334259E-1,6.1373655E-2,-2.1249145E-1,3.614948E-1,9.58816E-3,-3.8632506E-1,1.5173303E-1,1.24883085E-1,-3.7033492E-1,1.17746E-1,7.0914704E-1,-1.2912165E-1,5.38602E-1,-1.5522219E-1,-7.146551E-1,7.0940447E-1,8.6532705E-2,-5.5700696E-1,3.5630497E-1,-1.12505E0,-3.2630846E-1,2.5524652E-1,-6.3239485E-1,9.3963236E-1,4.3311107E-1,-3.208366E-1,3.2415786E-1,9.062439E-1,-4.389175E-1,-5.652563E-1,1.7140195E-1,-1.29472595E-2,-1.332688E-1,1.1627855E-1,1.01126665E-2,-7.2882783E-1,1.3824037E-1,5.4930756E-3,-7.242075E-1,5.268732E-1,-4.8702642E-1,-1.5050932E-2,-1.0093083E-3,7.109531E-3,-3.4965545E-1,3.7946573E-1,-5.8624995E-1,6.473799E-3,-1.1726286E-2,3.879532E-4,1.0792354E-2,-1.6478755E-2,9.786336E-3,7.6460307E-3,-3.8926038E-1,5.5459666E-1,-8.46776E-3,1.0539968E0,6.972481E-4,3.288311E-3,-1.2554232E-2,5.543933E-3,-8.643488E-3,3.9651506E-3,-2.3816186E-3,9.783616E-3,-5.8147935E-3,9.783616E-3,-3.386483E-3,-3.105553E-3,-1.1463288E-2,4.8491845E-4,4.799649E-3,-4.3865135E-3,-1.3839587E-2,3.4367144E-3,1.2883339E-2,-8.218597E-3,5.5217654E-3,-3.8019265E-3,5.165019E-3,5.058429E-3,-6.6174045E-3,-1.0109246E-2,5.4219214E-4,-5.0222827E-3,5.690033E-3,4.1428925E-3,-3.7909083E-3,-2.4080558E-3,-1.1951941E-2,7.700886E-3,-1.275015E-3,1.4725695E-2,1.1675828E-3],"categories":[],"categories_nodes":[],"categories_segments":[],"categories_sizes":[],"default_left":[0,0,0,0,0,0,0,0,0,0,0,0,0,0,0,0,0,0,0,0,0,0,0,0,0,0,0,0,0,0,0,0,0,0,0,0,0,0,0,0,0,0,0,0,0,0,0,0,0,0,0,0,0,0,0,0,0,0,0,0,0,0,0,0,0,0,0,0,0,0,0,0,0,0,0,0,0,0,0,0,0,0,0,0,0,0,0,0,0,0,0,0,0,0,0,0,0],"id":8,"left_children":[1,3,5,7,9,11,13,15,17,19,21,23,25,27,29,31,33,35,37,39,41,43,45,47,49,51,53,55,57,59,61,63,65,-1,67,69,-1,71,73,-1,75,77,79,-1,-1,-1,81,83,85,87,-1,-1,-1,89,-1,-1,91,93,-1,95,-1,-1,-1,-1,-1,-1,-1,-1,-1,-1,-1,-1,-1,-1,-1,-1,-1,-1,-1,-1,-1,-1,-1,-1,-1,-1,-1,-1,-1,-1,-1,-1,-1,-1,-1,-1,-1],"loss_changes":[5.5193877E0,5.741871E0,3.994406E0,6.39618E0,8.033558E0,5.030769E0,5.2356825E0,1.9067554E0,4.704389E0,7.8606296E0,3.0365334E0,3.9444637E0,1.1629457E0,5.021221E0,5.7232285E0,2.3580792E0,3.4384756E0,2.314012E0,5.0963163E0,2.745777E0,5.5589685E0,1.8866372E0,2.626626E0,3.536904E0,2.0677352E0,1.5417223E0,3.224959E0,3.288343E0,5.142059E0,1.2978134E0,3.3739917E0,3.06402E0,1.0316352E0,0E0,3.7887435E0,2.5709236E0,0E0,9.057956E-1,3.419779E0,0E0,1.5515928E0,3.9013891E0,2.7924004E0,0E0,0E0,0E0,2.7542458E0,4.0502305E0,1.2710239E0,1.3529643E0,0E0,0E0,0E0,1.4309936E0,0E0,0E0,4.3236494E0,2.3137336E0,0E0,3.4994383E0,0E0,0E0,0E0,0E0,0E0,0E0,0E0,0E0,0E0,0E0,0E0,0E0,0E0,0E0,0E0,0E0,0E0,0E0,0E0,0E0,0E0,0E0,0E0,0E0,0E0,0E0,0E0,0E0,0E0,0E0,0E0,0E0,0E0,0E0,0E0,0E0,0E0],"parents":[2147483647,0,0,1,1,2,2,3,3,4,4,5,5,6,6,7,7,8,8,9,9,10,10,11,11,12,12,13,13,14,14,15,15,16,16,17,17,18,18,19,19,20,20,21,21,22,22,23,23,24,24,25,25,26,26,27,27,28,28,29,29,30,30,31,31,32,32,34,34,35,35,37,37,38,38,40,40,41,41,42,42,46,46,47,47,48,48,49,49,53,53,56,56,57,57,59,59],"right_children":[2,4,6,8,10,12,14,16,18,20,22,24,26,28,30,32,34,36,38,40,42,44,46,48,50,52,54,56,58,60,62,64,66,-1,68,70,-1,72,74,-1,76,78,80,-1,-1,-1,82,84,86,88,-1,-1,-1,90,-1,-1,92,94,-1,96,-1,-1,-1,-1,-1,-1,-1,-1,-1,-1,-1,-1,-1,-1,-1,-1,-1,-1,-1,-1,-1,-1,-1,-1,-1,-1,-1,-1,-1,-1,-1,-1,-1,-1,-1,-1,-1],"split_conditions":[2.403207E4,1.517626E4,1.451725E4,7.34734E3,2.5120453E8,1.166165E4,4E0,1.5434477E8,1.5916285E8,1.734995E4,1.547881E4,3.834361E4,3.456773E4,1.8612E4,3.380214E4,8.04465E3,1.6722936E8,1E0,1.659521E8,1.560634E4,1.941375E4,3E0,8.31305E3,8.739567E8,1.108465E4,2.586329E4,4.070797E4,2.657934E8,2.200965E4,1.968985E4,1.751045E4,7.77125E3,8.63555E3,-1.29472595E-2,1.706437E8,7.63501E3,1.01126665E-2,9.92575E3,2.670414E8,5.4930756E-3,1.85794E4,2.177223E4,2.012795E4,-1.5050932E-2,-1.0093083E-3,7.109531E-3,1.94954E4,1.158175E4,3.275721E4,4.158785E4,-1.1726286E-2,3.879532E-4,1.0792354E-2,6.1626054E8,9.786336E-3,7.6460307E-3,1.80841E4,3.442924E4,-8.46776E-3,2.931602E4,6.972481E-4,3.288311E-3,-1.2554232E-2,5.543933E-3,-8.643488E-3,3.9651506E-3,-2.3816186E-3,9.783616E-3,-5.8147935E-3,9.783616E-3,-3.386483E-3,-3.105553E-3,-1.1463288E-2,4.8491845E-4,4.799649E-3,-4.3865135E-3,-1.3839587E-2,3.4367144E-3,1.2883339E-2,-8.218597E-3,5.5217654E-3,-3.8019265E-3,5.165019E-3,5.058429E-3,-6.6174045E-3,-1.0109246E-2,5.4219214E-4,-5.0222827E-3,5.690033E-3,4.1428925E-3,-3.7909083E-3,-2.4080558E-3,-1.1951941E-2,7.700886E-3,-1.275015E-3,1.4725695E-2,1.1675828E-3],"split_indices":[5,5,2,5,4,0,6,4,4,5,5,5,5,0,5,1,4,6,4,5,3,6,0,4,2,5,5,4,0,3,2,1,0,0,4,5,0,1,4,0,0,5,0,0,0,0,2,1,5,5,0,0,0,4,0,0,1,5,0,5,0,0,0,0,0,0,0,0,0,0,0,0,0,0,0,0,0,0,0,0,0,0,0,0,0,0,0,0,0,0,0,0,0,0,0,0,0],"split_type":[0,0,0,0,0,0,0,0,0,0,0,0,0,0,0,0,0,0,0,0,0,0,0,0,0,0,0,0,0,0,0,0,0,0,0,0,0,0,0,0,0,0,0,0,0,0,0,0,0,0,0,0,0,0,0,0,0,0,0,0,0,0,0,0,0,0,0,0,0,0,0,0,0,0,0,0,0,0,0,0,0,0,0,0,0,0,0,0,0,0,0,0,0,0,0,0,0],"sum_hessian":[4.334073E2,3.0465158E2,1.2875569E2,1.5566182E2,1.4898978E2,5.9352592E1,6.94031E1,2.5591175E1,1.3007065E2,4.755486E1,1.0143492E2,3.5677074E1,2.367552E1,5.5584507E1,1.3818588E1,1.588377E1,9.707405E0,1.2581151E1,1.17489494E2,1.1693322E1,3.5861538E1,4.237661E0,9.719726E1,3.0708038E1,4.9690356E0,1.1592204E1,1.2083316E1,3.9268185E1,1.6316322E1,1.0094859E1,3.7237294E0,6.718706E0,9.165064E0,4.2450233E0,5.462382E0,4.710582E0,7.870569E0,6.225562E0,1.1126393E2,1.2351817E0,1.045814E1,3.0140676E1,5.7208614E0,2.7481833E0,1.4894776E0,1.4912734E0,9.5705986E1,2.723652E1,3.4715161E0,2.729365E0,2.2396708E0,1.7268714E0,9.865333E0,7.1557393E0,4.9275765E0,1.7252458E0,3.754294E1,1.407311E1,2.2432125E0,8.358528E0,1.7363311E0,2.2269914E0,1.496738E0,1.2364572E0,5.4822493E0,5.934873E0,3.2301903E0,1.2297063E0,4.2326756E0,1.2297063E0,3.4808753E0,3.981024E0,2.244538E0,8.9024864E1,2.2239063E1,8.460923E0,1.9972169E0,2.5465258E1,4.675418E0,4.484947E0,1.2359147E0,9.298864E1,2.7173448E0,2.4747011E1,2.4895108E0,1.7396182E0,1.7318978E0,1.489547E0,1.2398181E0,3.2053745E0,3.950365E0,3.2799915E1,4.7430253E0,1.0596432E1,3.4766786E0,5.3832E0,2.9753277E0],"tree_param":{"num_deleted":"0","num_feature":"7","num_nodes":"97","size_leaf_vector":"1"}},{"base_weights":[5.1008124E-4,-7.212319E-2,1.7164846E-1,6.0748905E-2,-2.1039434E-1,3.5802853E-1,9.476159E-3,-3.828323E-1,1.5029973E-1,-6.3956445E-1,-8.698525E-2,1.15993E-1,7.034444E-1,-1.2798855E-1,5.341548E-1,-1.537597E-1,-7.082338E-1,7.041002E-1,8.559917E-2,-1.3112817E-2,-8.354228E-1,3.53264E-1,-2.841968E-1,2.5242737E-1,-6.2774915E-1,1.19469585E-2,5.529237E-1,-3.1774288E-1,3.2095918E-1,8.9967567E-1,-4.3648255E-1,-5.5987525E-1,1.6987564E-1,-1.283828E-2,-1.3132058E-1,1.1625198E-1,1.0034635E0,-7.23353E-1,1.3692431E-1,8.203497E-1,-5.103578E-1,-9.439738E-1,-4.1298115E-1,5.224153E-1,-4.8246458E-1,-3.1805182E-1,5.1293373E-1,3.3922547E-1,-9.022168E-3,6.589056E-3,-1.1639195E-2,-5.5794567E-3,7.175901E-1,7.6020933E-3,-3.8565868E-1,5.4994226E-1,-8.41241E-3,1.046519E0,6.9285114E-4,-1.2492222E-2,3.2782787E-3,4.15741E-3,-9.112381E-3,3.932627E-3,-2.3630983E-3,9.736509E-3,-5.7660574E-3,9.736509E-3,-3.3595252E-3,4.8382273E-3,1.2452129E-2,-9.427724E-3,-9.6887513E-4,4.8014495E-4,4.756109E-3,1.0943192E-2,1.5124964E-3,-8.351939E-3,3.1177467E-3,-1.5824279E-2,-7.180826E-3,5.839327E-3,-7.314063E-3,3.3922559E-3,1.2846181E-2,-8.781584E-3,4.1722464E-3,-2.188903E-3,-9.827254E-3,-3.0985433E-3,1.0514927E-2,1.0329304E-2,1.9553618E-3,-5.013238E-3,5.6827054E-3,9.593196E-3,4.712208E-3,-2.3842545E-3,-1.1849079E-2,7.637073E-3,-1.2609778E-3,1.46286925E-2,1.1589357E-3],"categories":[],"categories_nodes":[],"categories_segments":[],"categories_sizes":[],"default_left":[0,0,0,0,0,0,0,0,0,0,0,0,0,0,0,0,0,0,0,0,0,0,0,0,0,0,0,0,0,0,0,0,0,0,0,0,0,0,0,0,0,0,0,0,0,0,0,0,0,0,0,0,0,0,0,0,0,0,0,0,0,0,0,0,0,0,0,0,0,0,0,0,0,0,0,0,0,0,0,0,0,0,0,0,0,0,0,0,0,0,0,0,0,0,0,0,0,0,0,0,0,0,0],"id":9,"left_children":[1,3,5,7,9,11,13,15,17,19,21,23,25,27,29,31,33,35,37,39,41,43,45,47,49,-1,51,53,55,57,59,61,63,-1,65,67,69,71,73,75,77,79,81,83,85,87,89,91,-1,93,-1,-1,95,-1,97,99,-1,101,-1,-1,-1,-1,-1,-1,-1,-1,-1,-1,-1,-1,-1,-1,-1,-1,-1,-1,-1,-1,-1,-1,-1,-1,-1,-1,-1,-1,-1,-1,-1,-1,-1,-1,-1,-1,-1,-1,-1,-1,-1,-1,-1,-1,-1],"loss_changes":[5.411554E0,5.628114E0,3.917316E0,6.279717E0,7.8889475E0,4.9617977E0,5.1451507E0,1.8733406E0,4.6352715E0,4.080061E0,1.0315755E1,3.879268E0,1.1626692E0,4.922231E0,5.6458406E0,2.3141854E0,3.3875494E0,2.2714257E0,5.0181184E0,4.130992E0,7.7423286E-1,5.4607406E0,2.3710032E0,3.4828212E0,2.0383747E0,0E0,4.193413E0,3.2416916E0,5.068652E0,1.2788792E0,3.3438811E0,3.0253832E0,1.0151045E0,0E0,3.7410693E0,2.540934E0,5.1059246E-1,9.0215063E-1,3.357252E0,5.1836777E-1,1.9233264E0,1.6641655E0,2.638795E0,3.909956E0,2.759479E0,4.9981556E0,1.9723766E0,2.8091152E0,0E0,1.3488116E0,0E0,0E0,6.4948654E-1,0E0,4.254021E0,2.2732105E0,0E0,3.4518824E0,0E0,0E0,0E0,0E0,0E0,0E0,0E0,0E0,0E0,0E0,0E0,0E0,0E0,0E0,0E0,0E0,0E0,0E0,0E0,0E0,0E0,0E0,0E0,0E0,0E0,0E0,0E0,0E0,0E0,0E0,0E0,0E0,0E0,0E0,0E0,0E0,0E0,0E0,0E0,0E0,0E0,0E0,0E0,0E0,0E0],"parents":[2147483647,0,0,1,1,2,2,3,3,4,4,5,5,6,6,7,7,8,8,9,9,10,10,11,11,12,12,13,13,14,14,15,15,16,16,17,17,18,18,19,19,20,20,21,21,22,22,23,23,24,24,26,26,27,27,28,28,29,29,30,30,31,31,32,32,34,34,35,35,36,36,37,37,38,38,39,39,40,40,41,41,42,42,43,43,44,44,45,45,46,46,47,47,49,49,52,52,54,54,55,55,57,57],"right_children":[2,4,6,8,10,12,14,16,18,20,22,24,26,28,30,32,34,36,38,40,42,44,46,48,50,-1,52,54,56,58,60,62,64,-1,66,68,70,72,74,76,78,80,82,84,86,88,90,92,-1,94,-1,-1,96,-1,98,100,-1,102,-1,-1,-1,-1,-1,-1,-1,-1,-1,-1,-1,-1,-1,-1,-1,-1,-1,-1,-1,-1,-1,-1,-1,-1,-1,-1,-1,-1,-1,-1,-1,-1,-1,-1,-1,-1,-1,-1,-1,-1,-1,-1,-1,-1,-1],"split_conditions":[2.403207E4,1.517626E4,1.451725E4,7.34734E3,1.734995E4,1.166165E4,4E0,1.5434477E8,1.5916285E8,1E0,2.5120453E8,3.834361E4,1.19174E4,1.8612E4,3.380214E4,8.04465E3,1.6722936E8,1E0,1.659521E8,1.611777E4,4E0,1.941375E4,1.94954E4,1.0722636E9,1.108465E4,1.19469585E-2,1.202345E4,2.657934E8,2.186015E4,1.968985E4,4.567047E8,7.7212E3,8.63555E3,-1.283828E-2,1.706437E8,7.63501E3,8.10666E3,4E0,2.670414E8,3.3341037E8,3.0738813E8,1.547881E4,1.09367E4,4E0,1.984465E4,1.79437E4,2E0,9.1589E3,-9.022168E-3,1.0119E4,-1.1639195E-2,-5.5794567E-3,2E0,7.6020933E-3,1.80841E4,3.442924E4,-8.41241E-3,2.931602E4,6.9285114E-4,-1.2492222E-2,3.2782787E-3,4.15741E-3,-9.112381E-3,3.932627E-3,-2.3630983E-3,9.736509E-3,-5.7660574E-3,9.736509E-3,-3.3595252E-3,4.8382273E-3,1.2452129E-2,-9.427724E-3,-9.6887513E-4,4.8014495E-4,4.756109E-3,1.0943192E-2,1.5124964E-3,-8.351939E-3,3.1177467E-3,-1.5824279E-2,-7.180826E-3,5.839327E-3,-7.314063E-3,3.3922559E-3,1.2846181E-2,-8.781584E-3,4.1722464E-3,-2.188903E-3,-9.827254E-3,-3.0985433E-3,1.0514927E-2,1.0329304E-2,1.9553618E-3,-5.013238E-3,5.6827054E-3,9.593196E-3,4.712208E-3,-2.3842545E-3,-1.1849079E-2,7.637073E-3,-1.2609778E-3,1.46286925E-2,1.1589357E-3],"split_indices":[5,5,2,5,5,0,6,4,4,6,4,5,0,0,5,1,4,6,4,5,6,3,2,4,2,0,0,4,2,3,4,2,0,0,4,5,5,6,4,4,4,5,0,6,0,1,6,0,0,0,0,0,6,0,1,5,0,5,0,0,0,0,0,0,0,0,0,0,0,0,0,0,0,0,0,0,0,0,0,0,0,0,0,0,0,0,0,0,0,0,0,0,0,0,0,0,0,0,0,0,0,0,0],"split_type":[0,0,0,0,0,0,0,0,0,0,0,0,0,0,0,0,0,0,0,0,0,0,0,0,0,0,0,0,0,0,0,0,0,0,0,0,0,0,0,0,0,0,0,0,0,0,0,0,0,0,0,0,0,0,0,0,0,0,0,0,0,0,0,0,0,0,0,0,0,0,0,0,0,0,0,0,0,0,0,0,0,0,0,0,0,0,0,0,0,0,0,0,0,0,0,0,0,0,0,0,0,0,0],"sum_hessian":[4.3335446E2,3.0463998E2,1.2871446E2,1.5563892E2,1.4900107E2,5.932556E1,6.938891E1,2.5592747E1,1.3004617E2,3.2342747E1,1.16658325E2,3.5668312E1,2.365725E1,5.5582478E1,1.3806431E1,1.5883663E1,9.709084E0,1.2570167E1,1.17476006E2,7.9575443E0,2.4385202E1,3.5845833E1,8.0812485E1,3.069764E1,4.9706726E0,3.9215348E0,1.9735714E1,3.92747E1,1.6307777E1,1.0082637E1,3.7237937E0,6.720478E0,9.163185E0,4.2467265E0,5.462357E0,4.7098823E0,7.8602843E0,6.227578E0,1.1124843E2,2.7306862E0,5.226858E0,1.8417946E1,5.967255E0,3.0123703E1,5.722132E0,7.809664E1,2.7158496E0,2.9208181E1,1.4894595E0,2.7293339E0,2.2413387E0,2.2394748E0,1.7496239E1,1.7236528E0,3.7551044E1,1.40636835E1,2.2440948E0,8.346414E0,1.7362239E0,1.4972402E0,2.2265537E0,1.7309606E0,4.989517E0,5.932399E0,3.2307863E0,1.2281455E0,4.2342114E0,1.2281455E0,3.481737E0,3.4486806E0,4.411604E0,4.2382307E0,1.9893472E0,8.902098E1,2.2227444E1,1.4865106E0,1.2441754E0,3.7351577E0,1.4917006E0,3.2439752E0,1.5173971E1,1.2427343E0,4.7245207E0,2.545165E1,4.6720514E0,3.9908438E0,1.7312882E0,6.911484E1,8.981803E0,1.242409E0,1.4734405E0,3.9499454E0,2.5258236E1,1.4896994E0,1.2396345E0,7.3706093E0,1.0125629E1,3.280602E1,4.745029E0,1.0586528E1,3.477156E0,5.3713965E0,2.9750166E0],"tree_param":{"num_deleted":"0","num_feature":"7","num_nodes":"103","size_leaf_vector":"1"}}]},"name":"gbtree"},"learner_model_param":{"base_score":"5.439367E-1","boost_from_average":"1","num_class":"0","num_feature":"7","num_target":"1"},"objective":{"name":"binary:logistic","reg_loss_param":{"scale_pos_weight":"1"}}},"version":[2,0,3]}